{"learner":{"attributes":{"scikit_learn":"{\"_estimator_type\": \"classifier\"}"},"feature_names":["gap_to_pwl_pct","overnight_move_pct","mom_3d","volatility_5d"],"feature_types":["float","float","float","float"],"gradient_booster":{"model":{"cats":{"enc":[],"feature_segments":[],"sorted_idx":[]},"gbtree_model_param":{"num_parallel_tree":"1","num_trees":"100"},"iteration_indptr":[0,1,2,3,4,5,6,7,8,9,10,11,12,13,14,15,16,17,18,19,20,21,22,23,24,25,26,27,28,29,30,31,32,33,34,35,36,37,38,39,40,41,42,43,44,45,46,47,48,49,50,51,52,53,54,55,56,57,58,59,60,61,62,63,64,65,66,67,68,69,70,71,72,73,74,75,76,77,78,79,80,81,82,83,84,85,86,87,88,89,90,91,92,93,94,95,96,97,98,99,100],"tree_info":[0,0,0,0,0,0,0,0,0,0,0,0,0,0,0,0,0,0,0,0,0,0,0,0,0,0,0,0,0,0,0,0,0,0,0,0,0,0,0,0,0,0,0,0,0,0,0,0,0,0,0,0,0,0,0,0,0,0,0,0,0,0,0,0,0,0,0,0,0,0,0,0,0,0,0,0,0,0,0,0,0,0,0,0,0,0,0,0,0,0,0,0,0,0,0,0,0,0,0,0],"trees":[{"base_weights":[2.6317772E-7,8.6795205E-1,-1.3576865E0,6.19613E-2,5.476695E-1,-1.4482981E0,3.539295E-2,-4.3208882E-2,3.3446986E-2,-5.3020757E-2,-8.59986E-2],"categories":[],"categories_nodes":[],"categories_segments":[],"categories_sizes":[],"default_left":[0,0,0,0,0,0,0,0,0,0,0],"id":0,"left_children":[1,3,5,-1,7,9,-1,-1,-1,-1,-1],"loss_changes":[1.0473026E2,5.7682E0,7.512081E0,0E0,5.8683453E0,1.7095261E0,0E0,0E0,0E0,0E0,0E0],"parents":[2147483647,0,0,1,1,2,2,4,4,5,5],"right_children":[2,4,6,-1,8,10,-1,-1,-1,-1,-1],"split_conditions":[-8.932052E-3,-3.197761E-2,3.0284656E-2,6.19613E-2,-1.6450621E-2,3.554494E-5,3.539295E-2,-4.3208882E-2,3.3446986E-2,-5.3020757E-2,-8.59986E-2],"split_indices":[0,0,3,0,1,0,0,0,0,0,0],"split_type":[0,0,0,0,0,0,0,0,0,0,0],"sum_hessian":[8.6874466E1,5.3215313E1,3.3659157E1,2.3316957E1,2.9898355E1,3.2530914E1,1.1282399E0,1.8803997E0,2.8017956E1,1.5419278E1,1.7111637E1],"tree_param":{"num_deleted":"0","num_feature":"4","num_nodes":"11","size_leaf_vector":"1"}},{"base_weights":[2.5054067E-4,8.44035E-1,-1.2515829E0,6.0849417E-2,5.275628E-1,-1.3339303E0,3.4789458E-2,-4.1208144E-2,3.2368254E-2,-4.9285855E-2,-7.870648E-2],"categories":[],"categories_nodes":[],"categories_segments":[],"categories_sizes":[],"default_left":[0,0,0,0,0,0,0,0,0,0,0],"id":1,"left_children":[1,3,5,-1,7,9,-1,-1,-1,-1,-1],"loss_changes":[9.382838E1,5.6209183E0,6.6636887E0,0E0,5.467862E0,1.3471832E0,0E0,0E0,0E0,0E0,0E0],"parents":[2147483647,0,0,1,1,2,2,4,4,5,5],"right_children":[2,4,6,-1,8,10,-1,-1,-1,-1,-1],"split_conditions":[-8.932052E-3,-3.197761E-2,3.0284656E-2,6.0849417E-2,-1.6450621E-2,3.554494E-5,3.4789458E-2,-4.1208144E-2,3.2368254E-2,-4.9285855E-2,-7.870648E-2],"split_indices":[0,0,3,0,1,0,0,0,0,0,0],"split_type":[0,0,0,0,0,0,0,0,0,0,0],"sum_hessian":[8.6829185E1,5.2062675E1,3.476651E1,2.2592543E1,2.947013E1,3.3658234E1,1.1082749E0,1.9206078E0,2.7549522E1,1.5823258E1,1.7834976E1],"tree_param":{"num_deleted":"0","num_feature":"4","num_nodes":"11","size_leaf_vector":"1"}},{"base_weights":[5.087746E-4,8.2098657E-1,-1.1585245E0,5.980564E-2,5.081451E-1,-1.2339327E0,3.4203958E-2,-3.9330296E-2,3.132031E-2,-3.591594E-2,-6.810715E-2],"categories":[],"categories_nodes":[],"categories_segments":[],"categories_sizes":[],"default_left":[0,0,0,0,0,0,0,0,0,0,0],"id":2,"left_children":[1,3,5,-1,7,9,-1,-1,-1,-1,-1],"loss_changes":[8.433376E1,5.485817E0,5.9515114E0,0E0,5.0941677E0,1.3795357E0,0E0,0E0,0E0,0E0,0E0],"parents":[2147483647,0,0,1,1,2,2,4,4,5,5],"right_children":[2,4,6,-1,8,10,-1,-1,-1,-1,-1],"split_conditions":[-8.932052E-3,-3.197761E-2,3.0284656E-2,5.980564E-2,-1.6450621E-2,-6.4820834E-3,3.4203958E-2,-3.9330296E-2,3.132031E-2,-3.591594E-2,-6.810715E-2],"split_indices":[0,0,3,0,1,1,0,0,0,0,0],"split_type":[0,0,0,0,0,0,0,0,0,0,0],"sum_hessian":[8.668248E1,5.092466E1,3.575782E1,2.187323E1,2.9051432E1,3.466932E1,1.0885037E0,1.958446E0,2.7092985E1,8.218843E0,2.6450474E1],"tree_param":{"num_deleted":"0","num_feature":"4","num_nodes":"11","size_leaf_vector":"1"}},{"base_weights":[9.4849046E-4,7.98724E-1,-1.0753818E0,5.8822602E-2,4.8938087E-1,-1.1448396E0,3.3635512E-2,-3.756495E-2,3.0301562E-2,-4.195212E-2,-6.788857E-2],"categories":[],"categories_nodes":[],"categories_segments":[],"categories_sizes":[],"default_left":[0,0,0,0,0,0,0,0,0,0,0],"id":3,"left_children":[1,3,5,-1,7,9,-1,-1,-1,-1,-1],"loss_changes":[7.5959465E1,5.3606377E0,5.3424225E0,0E0,4.745383E0,1.2431679E0,0E0,0E0,0E0,0E0,0E0],"parents":[2147483647,0,0,1,1,2,2,4,4,5,5],"right_children":[2,4,6,-1,8,10,-1,-1,-1,-1,-1],"split_conditions":[-8.932052E-3,-3.197761E-2,3.0284656E-2,5.8822602E-2,-1.6450621E-2,3.554494E-5,3.3635512E-2,-3.756495E-2,3.0301562E-2,-4.195212E-2,-6.788857E-2],"split_indices":[0,0,3,0,1,0,0,0,0,0,0],"split_type":[0,0,0,0,0,0,0,0,0,0,0],"sum_hessian":[8.646147E1,4.9804398E1,3.6657078E1,2.1161617E1,2.8642778E1,3.5588127E1,1.0689514E0,1.9940186E0,2.664876E1,1.6636461E1,1.8951666E1],"tree_param":{"num_deleted":"0","num_feature":"4","num_nodes":"11","size_leaf_vector":"1"}},{"base_weights":[1.2182056E-3,7.7717537E-1,-1.0018572E0,5.7893854E-2,4.712385E-1,-1.0662327E0,3.3083253E-2,-3.5902873E-2,2.9310638E-2,-3.0646577E-2,-5.896176E-2],"categories":[],"categories_nodes":[],"categories_segments":[],"categories_sizes":[],"default_left":[0,0,0,0,0,0,0,0,0,0,0],"id":4,"left_children":[1,3,5,-1,7,9,-1,-1,-1,-1,-1],"loss_changes":[6.861593E1,5.2434807E0,4.823265E0,0E0,4.4197917E0,1.1930885E0,0E0,0E0,0E0,0E0,0E0],"parents":[2147483647,0,0,1,1,2,2,4,4,5,5],"right_children":[2,4,6,-1,8,10,-1,-1,-1,-1,-1],"split_conditions":[-8.932052E-3,-3.197761E-2,3.0284656E-2,5.7893854E-2,-1.6450621E-2,-6.4820834E-3,3.3083253E-2,-3.5902873E-2,2.9310638E-2,-3.0646577E-2,-5.896176E-2],"split_indices":[0,0,3,0,1,1,0,0,0,0,0],"split_type":[0,0,0,0,0,0,0,0,0,0,0],"sum_hessian":[8.6156006E1,4.8704487E1,3.745152E1,2.0459902E1,2.8244587E1,3.640188E1,1.0496398E0,2.0274296E0,2.6217157E1,8.545662E0,2.7856216E1],"tree_param":{"num_deleted":"0","num_feature":"4","num_nodes":"11","size_leaf_vector":"1"}},{"base_weights":[1.6483134E-3,7.5627834E-1,-9.3517804E-1,5.701368E-2,4.5369038E-1,-9.951014E-1,3.2546353E-2,-3.4335747E-2,2.834636E-2,-3.6052994E-2,-5.9398223E-2],"categories":[],"categories_nodes":[],"categories_segments":[],"categories_sizes":[],"default_left":[0,0,0,0,0,0,0,0,0,0,0],"id":5,"left_children":[1,3,5,-1,7,9,-1,-1,-1,-1,-1],"loss_changes":[6.207034E1,5.132763E0,4.370804E0,0E0,4.115813E0,1.1592598E0,0E0,0E0,0E0,0E0,0E0],"parents":[2147483647,0,0,1,1,2,2,4,4,5,5],"right_children":[2,4,6,-1,8,10,-1,-1,-1,-1,-1],"split_conditions":[-8.932052E-3,-3.197761E-2,3.0284656E-2,5.701368E-2,-1.6450621E-2,3.554494E-5,3.2546353E-2,-3.4335747E-2,2.834636E-2,-3.6052994E-2,-5.9398223E-2],"split_indices":[0,0,3,0,1,0,0,0,0,0,0],"split_type":[0,0,0,0,0,0,0,0,0,0,0],"sum_hessian":[8.579885E1,4.7627106E1,3.8171745E1,1.9769934E1,2.7857174E1,3.714116E1,1.0305874E0,2.0587845E0,2.579839E1,1.729921E1,1.984195E1],"tree_param":{"num_deleted":"0","num_feature":"4","num_nodes":"11","size_leaf_vector":"1"}},{"base_weights":[1.9287586E-3,7.359784E-1,-8.754159E-1,5.617699E-2,4.367116E-1,-9.3146247E-1,3.2024086E-2,-3.2856107E-2,2.74077E-2,-3.4495283E-2,-5.6555606E-2],"categories":[],"categories_nodes":[],"categories_segments":[],"categories_sizes":[],"default_left":[0,0,0,0,0,0,0,0,0,0,0],"id":6,"left_children":[1,3,5,-1,7,9,-1,-1,-1,-1,-1],"loss_changes":[5.6274292E1,5.027174E0,3.9785404E0,0E0,3.831994E0,1.0905571E0,0E0,0E0,0E0,0E0,0E0],"parents":[2147483647,0,0,1,1,2,2,4,4,5,5],"right_children":[2,4,6,-1,8,10,-1,-1,-1,-1,-1],"split_conditions":[-8.932052E-3,-3.197761E-2,3.0284656E-2,5.617699E-2,-1.6450621E-2,-1.08863926E-4,3.2024086E-2,-3.2856107E-2,2.74077E-2,-3.4495283E-2,-5.6555606E-2],"split_indices":[0,0,3,0,1,1,0,0,0,0,0],"split_type":[0,0,0,0,0,0,0,0,0,0,0],"sum_hessian":[8.538004E1,4.657401E1,3.8806034E1,1.9093248E1,2.7480759E1,3.7794224E1,1.0118105E0,2.0881875E0,2.5392572E1,1.9118393E1,1.867583E1],"tree_param":{"num_deleted":"0","num_feature":"4","num_nodes":"11","size_leaf_vector":"1"}},{"base_weights":[2.1993606E-3,7.1622807E-1,-8.209668E-1,5.5379268E-2,4.2028004E-1,-8.754951E-1,1.9214397E-2,-3.145724E-2,2.6493777E-2,-3.62853E-2,-6.280178E-2],"categories":[],"categories_nodes":[],"categories_segments":[],"categories_sizes":[],"default_left":[0,0,0,0,0,0,0,0,0,0,0],"id":7,"left_children":[1,3,5,-1,7,9,-1,-1,-1,-1,-1],"loss_changes":[5.10914E1,4.9255943E0,2.9901028E0,0E0,3.5669947E0,1.3078346E0,0E0,0E0,0E0,0E0,0E0],"parents":[2147483647,0,0,1,1,2,2,4,4,5,5],"right_children":[2,4,6,-1,8,10,-1,-1,-1,-1,-1],"split_conditions":[-8.932052E-3,-3.197761E-2,2.9211048E-2,5.5379268E-2,-1.6450621E-2,1.8057052E-2,1.9214397E-2,-3.145724E-2,2.6493777E-2,-3.62853E-2,-6.280178E-2],"split_indices":[0,0,3,0,1,3,0,0,0,0,0],"split_type":[0,0,0,0,0,0,0,0,0,0,0],"sum_hessian":[8.492458E1,4.554659E1,3.9378E1,1.843109E1,2.71155E1,3.7935326E1,1.4426736E0,2.115741E0,2.499976E1,2.930663E1,8.6286955E0],"tree_param":{"num_deleted":"0","num_feature":"4","num_nodes":"11","size_leaf_vector":"1"}},{"base_weights":[2.171557E-3,6.969855E-1,-7.718397E-1,5.461646E-2,4.0437442E-1,-8.2287705E-1,1.8756127E-2,-3.0133108E-2,2.5603745E-2,-3.1479303E-2,-5.35361E-2],"categories":[],"categories_nodes":[],"categories_segments":[],"categories_sizes":[],"default_left":[0,0,0,0,0,0,0,0,0,0,0],"id":8,"left_children":[1,3,5,-1,7,9,-1,-1,-1,-1,-1],"loss_changes":[4.648403E1,4.8271294E0,2.7022095E0,0E0,3.3195686E0,1.2162476E0,0E0,0E0,0E0,0E0,0E0],"parents":[2147483647,0,0,1,1,2,2,4,4,5,5],"right_children":[2,4,6,-1,8,10,-1,-1,-1,-1,-1],"split_conditions":[-8.932052E-3,-3.197761E-2,2.9211048E-2,5.461646E-2,-1.6450621E-2,2.840673E-3,1.8756127E-2,-3.0133108E-2,2.5603745E-2,-3.1479303E-2,-5.35361E-2],"split_indices":[0,0,3,0,1,0,0,0,0,0,0],"split_type":[0,0,0,0,0,0,0,0,0,0,0],"sum_hessian":[8.4434364E1,4.4545925E1,3.9888443E1,1.7784473E1,2.6761452E1,3.845963E1,1.4288126E0,2.141545E0,2.4619905E1,2.3596933E1,1.4862698E1],"tree_param":{"num_deleted":"0","num_feature":"4","num_nodes":"11","size_leaf_vector":"1"}},{"base_weights":[2.265757E-3,6.7821556E-1,-7.2660714E-1,5.388493E-2,3.8897797E-1,-7.745166E-1,1.8309422E-2,3.6593612E-2,2.3067982E-3,-3.1771384E-2,-5.659425E-2],"categories":[],"categories_nodes":[],"categories_segments":[],"categories_sizes":[],"default_left":[0,0,0,0,0,0,0,0,0,0,0],"id":9,"left_children":[1,3,5,-1,7,9,-1,-1,-1,-1,-1],"loss_changes":[4.2327568E1,4.7309914E0,2.44796E0,0E0,3.1895323E0,1.2652454E0,0E0,0E0,0E0,0E0,0E0],"parents":[2147483647,0,0,1,1,2,2,4,4,5,5],"right_children":[2,4,6,-1,8,10,-1,-1,-1,-1,-1],"split_conditions":[-8.932052E-3,-3.197761E-2,2.9211048E-2,5.388493E-2,1.5204493E-2,1.8057052E-2,1.8309422E-2,3.6593612E-2,2.3067982E-3,-3.1771384E-2,-5.659425E-2],"split_indices":[0,0,3,0,3,3,0,0,0,0,0],"split_type":[0,0,0,0,0,0,0,0,0,0,0],"sum_hessian":[8.39124E1,4.357285E1,4.0339546E1,1.7154192E1,2.6418657E1,3.8924313E1,1.415235E0,1.2641005E1,1.3777652E1,3.0018925E1,8.905387E0],"tree_param":{"num_deleted":"0","num_feature":"4","num_nodes":"11","size_leaf_vector":"1"}},{"base_weights":[2.7917873E-3,6.6021085E-1,-6.8501604E-1,8.669409E-1,1.3054208E-1,-7.301023E-1,1.78739E-2,5.1823236E-2,1.7412722E-2,-3.7108846E-2,2.3014342E-2,-2.4927992E-2,-4.518406E-2],"categories":[],"categories_nodes":[],"categories_segments":[],"categories_sizes":[],"default_left":[0,0,0,0,0,0,0,0,0,0,0,0,0],"id":10,"left_children":[1,3,5,7,9,11,-1,-1,-1,-1,-1,-1,-1],"loss_changes":[3.8624588E1,4.6688576E0,2.2231789E0,2.3855114E0,4.2085547E0,1.1709499E0,0E0,0E0,0E0,0E0,0E0,0E0,0E0],"parents":[2147483647,0,0,1,1,2,2,3,3,4,4,5,5],"right_children":[2,4,6,8,10,12,-1,-1,-1,-1,-1,-1,-1],"split_conditions":[-8.932052E-3,-1.7069647E-2,2.9211048E-2,-1.01544615E-2,-1.5388739E-2,3.554494E-5,1.78739E-2,5.1823236E-2,1.7412722E-2,-3.7108846E-2,2.3014342E-2,-2.4927992E-2,-4.518406E-2],"split_indices":[0,0,3,2,0,0,0,0,0,0,0,0,0],"split_type":[0,0,0,0,0,0,0,0,0,0,0,0,0],"sum_hessian":[8.3418816E1,4.2672142E1,4.0746674E1,3.0234743E1,1.2437401E1,3.9344734E1,1.4019399E0,2.2034798E1,8.199944E0,3.067648E0,9.369753E0,1.8516811E1,2.0827925E1],"tree_param":{"num_deleted":"0","num_feature":"4","num_nodes":"13","size_leaf_vector":"1"}},{"base_weights":[3.0540724E-3,6.4194465E-1,-6.463245E-1,5.260634E-2,3.567977E-1,-6.888499E-1,1.7449228E-2,3.489923E-2,1.2008421E-3,-2.7954033E-2,-5.1280286E-2],"categories":[],"categories_nodes":[],"categories_segments":[],"categories_sizes":[],"default_left":[0,0,0,0,0,0,0,0,0,0,0],"id":11,"left_children":[1,3,5,-1,7,9,-1,-1,-1,-1,-1],"loss_changes":[3.5220604E1,4.629381E0,2.022461E0,0E0,3.0210402E0,1.2058449E0,0E0,0E0,0E0,0E0,0E0],"parents":[2147483647,0,0,1,1,2,2,4,4,5,5],"right_children":[2,4,6,-1,8,10,-1,-1,-1,-1,-1],"split_conditions":[-8.932052E-3,-3.197761E-2,2.9211048E-2,5.260634E-2,1.5204493E-2,1.8057052E-2,1.7449228E-2,3.489923E-2,1.2008421E-3,-2.7954033E-2,-5.1280286E-2],"split_indices":[0,0,3,0,3,3,0,0,0,0,0],"split_type":[0,0,0,0,0,0,0,0,0,0,0],"sum_hessian":[8.2893036E1,4.178971E1,4.110332E1,1.6034462E1,2.5755249E1,3.9714394E1,1.388927E0,1.2175138E1,1.3580111E1,3.058761E1,9.126784E0],"tree_param":{"num_deleted":"0","num_feature":"4","num_nodes":"11","size_leaf_vector":"1"}},{"base_weights":[3.5541772E-3,6.2473845E-1,-6.1065E-1,5.194698E-2,3.438843E-1,-6.5084386E-1,1.7035093E-2,-3.007648E-2,2.2587067E-2,-2.400295E-2,-4.3790974E-2],"categories":[],"categories_nodes":[],"categories_segments":[],"categories_sizes":[],"default_left":[0,0,0,0,0,0,0,0,0,0,0],"id":12,"left_children":[1,3,5,-1,7,9,-1,-1,-1,-1,-1],"loss_changes":[3.2189774E1,4.5220165E0,1.8440466E0,0E0,2.972904E0,1.1567879E0,0E0,0E0,0E0,0E0,0E0],"parents":[2147483647,0,0,1,1,2,2,4,4,5,5],"right_children":[2,4,6,-1,8,10,-1,-1,-1,-1,-1],"split_conditions":[-8.932052E-3,-3.197761E-2,2.9211048E-2,5.194698E-2,-1.6450621E-2,2.840673E-3,1.7035093E-2,-3.007648E-2,2.2587067E-2,-2.400295E-2,-4.3790974E-2],"split_indices":[0,0,3,0,1,0,0,0,0,0,0],"split_type":[0,0,0,0,0,0,0,0,0,0,0],"sum_hessian":[8.236944E1,4.0943497E1,4.1425945E1,1.545354E1,2.5489956E1,4.004975E1,1.3761951E0,2.1415174E0,2.3348438E1,2.454831E1,1.550144E1],"tree_param":{"num_deleted":"0","num_feature":"4","num_nodes":"11","size_leaf_vector":"1"}},{"base_weights":[3.6106685E-3,8.193019E-1,-4.2807606E-1,9.9805164E-1,2.9534596E-1,9.176858E-2,-5.773625E-1,5.191086E-2,7.1599553E-3,3.7647802E-2,-1.2554477E-2,-3.6438424E-2,2.0871103E-2,-3.0771205E-2,1.663118E-2],"categories":[],"categories_nodes":[],"categories_segments":[],"categories_sizes":[],"default_left":[0,0,0,0,0,0,0,0,0,0,0,0,0,0,0],"id":13,"left_children":[1,3,5,7,9,11,13,-1,-1,-1,-1,-1,-1,-1,-1],"loss_changes":[2.950315E1,2.420803E0,4.3054314E0,5.792141E-1,2.3884976E0,3.8014605E0,1.6839027E0,0E0,0E0,0E0,0E0,0E0,0E0,0E0,0E0],"parents":[2147483647,0,0,1,1,2,2,3,3,4,4,5,5,6,6],"right_children":[2,4,6,8,10,12,14,-1,-1,-1,-1,-1,-1,-1,-1],"split_conditions":[-1.7069647E-2,-1.01544615E-2,-8.932052E-3,3.4604058E-2,-2.9624717E-2,-1.5388739E-2,2.9211048E-2,5.191086E-2,7.1599553E-3,3.7647802E-2,-1.2554477E-2,-3.6438424E-2,2.0871103E-2,-3.0771205E-2,1.663118E-2],"split_indices":[0,2,0,3,0,0,3,0,0,0,0,0,0,0,0],"split_type":[0,0,0,0,0,0,0,0,0,0,0,0,0,0,0],"sum_hessian":[8.179044E1,2.7994911E1,5.3795532E1,2.0199074E1,7.795838E0,1.2088006E1,4.1707527E1,1.908773E1,1.1113427E0,4.03707E0,3.7587683E0,3.0827217E0,9.005284E0,4.0343784E1,1.3637425E0],"tree_param":{"num_deleted":"0","num_feature":"4","num_nodes":"15","size_leaf_vector":"1"}},{"base_weights":[4.432005E-3,8.025194E-1,-4.0550917E-1,9.827153E-1,2.8616837E-1,-1.2682678E-1,-6.7991614E-1,5.117486E-2,6.9906027E-3,4.3001715E-2,-7.0489994E-3,2.756059E-2,-1.7183993E-2,3.0728757E-2,-4.0001534E-2],"categories":[],"categories_nodes":[],"categories_segments":[],"categories_sizes":[],"default_left":[0,0,0,0,0,0,0,0,0,0,0,0,0,0,0],"id":14,"left_children":[1,3,5,7,9,11,13,-1,-1,-1,-1,-1,-1,-1,-1],"loss_changes":[2.723818E1,2.3473015E0,4.1204605E0,5.626602E-1,2.258534E0,4.3830676E0,4.765704E0,0E0,0E0,0E0,0E0,0E0,0E0,0E0,0E0],"parents":[2147483647,0,0,1,1,2,2,3,3,4,4,5,5,6,6],"right_children":[2,4,6,8,10,12,14,-1,-1,-1,-1,-1,-1,-1,-1],"split_conditions":[-1.7069647E-2,-1.01544615E-2,-1.08863926E-4,3.4604058E-2,-3.197761E-2,-8.932052E-3,-4.3015E-2,5.117486E-2,6.9906027E-3,4.3001715E-2,-7.0489994E-3,2.756059E-2,-1.7183993E-2,3.0728757E-2,-4.0001534E-2],"split_indices":[0,2,1,3,0,0,2,0,0,0,0,0,0,0,0],"split_type":[0,0,0,0,0,0,0,0,0,0,0,0,0,0,0],"sum_hessian":[8.12595E1,2.7250214E1,5.4009285E1,1.9531076E1,7.719137E0,2.7521334E1,2.6487953E1,1.8425358E1,1.1057198E0,2.8614285E0,4.8577085E0,6.2954297E0,2.1225904E1,1.8995595E0,2.4588392E1],"tree_param":{"num_deleted":"0","num_feature":"4","num_nodes":"15","size_leaf_vector":"1"}},{"base_weights":[5.725125E-3,7.8631973E-1,-3.83343E-1,9.677616E-1,2.7839336E-1,-1.2010649E-1,-6.3995767E-1,5.0459333E-2,6.8252794E-3,3.638315E-2,-1.167272E-2,-4.8530545E-2,2.7176084E-3,2.997051E-2,-3.7649807E-2],"categories":[],"categories_nodes":[],"categories_segments":[],"categories_sizes":[],"default_left":[0,0,0,0,0,0,0,0,0,0,0,0,0,0,0],"id":15,"left_children":[1,3,5,7,9,11,13,-1,-1,-1,-1,-1,-1,-1,-1],"loss_changes":[2.514145E1,2.2680721E0,3.6557198E0,5.4690933E-1,2.1591806E0,4.282601E0,4.338887E0,0E0,0E0,0E0,0E0,0E0,0E0,0E0,0E0],"parents":[2147483647,0,0,1,1,2,2,3,3,4,4,5,5,6,6],"right_children":[2,4,6,8,10,12,14,-1,-1,-1,-1,-1,-1,-1,-1],"split_conditions":[-1.7069647E-2,-1.01544615E-2,-1.08863926E-4,3.4604058E-2,-2.9624717E-2,7.39069E-3,-4.3015E-2,5.0459333E-2,6.8252794E-3,3.638315E-2,-1.167272E-2,-4.8530545E-2,2.7176084E-3,2.997051E-2,-3.7649807E-2],"split_indices":[0,2,1,3,0,3,2,0,0,0,0,0,0,0,0],"split_type":[0,0,0,0,0,0,0,0,0,0,0,0,0,0,0],"sum_hessian":[8.07901E1,2.6533806E1,5.4256298E1,1.8883064E1,7.650742E0,2.7507263E1,2.6749037E1,1.778282E1,1.1002445E0,3.8498938E0,3.8008482E0,3.9052415E0,2.360202E1,1.8761352E0,2.48729E1],"tree_param":{"num_deleted":"0","num_feature":"4","num_nodes":"15","size_leaf_vector":"1"}},{"base_weights":[6.1147097E-3,7.702195E-1,-3.633278E-1,9.531469E-1,2.698173E-1,9.845991E-2,-4.948092E-1,4.9761962E-2,6.663841E-3,-3.0972421E-2,2.5084501E-2,-3.4651373E-2,2.0829352E-2,-5.4135233E-2,-2.0969553E-2],"categories":[],"categories_nodes":[],"categories_segments":[],"categories_sizes":[],"default_left":[0,0,0,0,0,0,0,0,0,0,0,0,0,0,0],"id":16,"left_children":[1,3,5,7,9,11,13,-1,-1,-1,-1,-1,-1,-1,-1],"loss_changes":[2.3243876E1,2.1990757E0,3.419393E0,5.3185654E-1,2.0795536E0,3.5966113E0,1.4691982E0,0E0,0E0,0E0,0E0,0E0,0E0,0E0,0E0],"parents":[2147483647,0,0,1,1,2,2,3,3,4,4,5,5,6,6],"right_children":[2,4,6,8,10,12,14,-1,-1,-1,-1,-1,-1,-1,-1],"split_conditions":[-1.7069647E-2,-1.01544615E-2,-8.932052E-3,3.4604058E-2,-1.7045386E-2,-1.5388739E-2,-6.676917E-3,4.9761962E-2,6.663841E-3,-3.0972421E-2,2.5084501E-2,-3.4651373E-2,2.0829352E-2,-5.4135233E-2,-2.0969553E-2],"split_indices":[0,2,0,3,1,0,0,0,0,0,0,0,0,0,0],"split_type":[0,0,0,0,0,0,0,0,0,0,0,0,0,0,0],"sum_hessian":[8.034828E1,2.5833324E1,5.4514957E1,1.8255184E1,7.57814E0,1.2137367E1,4.237759E1,1.7160273E1,1.0949113E0,1.2216052E0,6.3565345E0,3.1419249E0,8.995442E0,3.2997262E0,3.9077866E1],"tree_param":{"num_deleted":"0","num_feature":"4","num_nodes":"15","size_leaf_vector":"1"}},{"base_weights":[5.641595E-3,7.536458E-1,-3.4576386E-1,9.3883204E-1,2.5836408E-1,-9.823659E-2,-5.8624357E-1,4.908065E-2,6.5062433E-3,4.1717436E-2,-7.4752606E-3,-4.2658813E-2,3.925584E-3,2.9617885E-2,-3.4624137E-2],"categories":[],"categories_nodes":[],"categories_segments":[],"categories_sizes":[],"default_left":[0,0,0,0,0,0,0,0,0,0,0,0,0,0,0],"id":17,"left_children":[1,3,5,7,9,11,13,-1,-1,-1,-1,-1,-1,-1,-1],"loss_changes":[2.1499706E1,2.1551142E0,3.255641E0,5.174179E-1,2.120195E0,3.8871868E0,3.9200659E0,0E0,0E0,0E0,0E0,0E0,0E0,0E0,0E0],"parents":[2147483647,0,0,1,1,2,2,3,3,4,4,5,5,6,6],"right_children":[2,4,6,8,10,12,14,-1,-1,-1,-1,-1,-1,-1,-1],"split_conditions":[-1.7069647E-2,-1.01544615E-2,-1.08863926E-4,3.4604058E-2,-3.197761E-2,7.804412E-3,-4.3015E-2,4.908065E-2,6.5062433E-3,4.1717436E-2,-7.4752606E-3,-4.2658813E-2,3.925584E-3,2.9617885E-2,-3.4624137E-2],"split_indices":[0,2,1,3,0,3,2,0,0,0,0,0,0,0,0],"split_type":[0,0,0,0,0,0,0,0,0,0,0,0,0,0,0],"sum_hessian":[7.9802345E1,2.5141438E1,5.4660908E1,1.764748E1,7.4939585E0,2.7629843E1,2.7031067E1,1.6557762E1,1.089718E0,2.6732385E0,4.82072E0,4.515567E0,2.3114277E1,1.8567576E0,2.5174309E1],"tree_param":{"num_deleted":"0","num_feature":"4","num_nodes":"15","size_leaf_vector":"1"}},{"base_weights":[6.2276423E-3,7.3834664E-1,-3.2791984E-1,9.2478174E-1,2.5150552E-1,-1.2115495E-1,-6.0060096E-1,4.8413496E-2,6.3523683E-3,4.114414E-2,-7.1394034E-3,1.4385666E-3,-4.564308E-2,3.3437882E-3,-4.0826477E-2],"categories":[],"categories_nodes":[],"categories_segments":[],"categories_sizes":[],"default_left":[0,0,0,0,0,0,0,0,0,0,0,0,0,0,0],"id":18,"left_children":[1,3,5,7,9,11,13,-1,-1,-1,-1,-1,-1,-1,-1],"loss_changes":[1.9902359E1,2.0812206E0,3.077395E0,5.0352E-1,2.0172846E0,3.9468398E0,3.4910212E0,0E0,0E0,0E0,0E0,0E0,0E0,0E0,0E0],"parents":[2147483647,0,0,1,1,2,2,3,3,4,4,5,5,6,6],"right_children":[2,4,6,8,10,12,14,-1,-1,-1,-1,-1,-1,-1,-1],"split_conditions":[-1.7069647E-2,-1.01544615E-2,3.554494E-5,3.4604058E-2,-3.197761E-2,6.4988183E-3,-6.4820834E-3,4.8413496E-2,6.3523683E-3,4.114414E-2,-7.1394034E-3,1.4385666E-3,-4.564308E-2,3.3437882E-3,-4.0826477E-2],"split_indices":[0,2,0,3,0,1,1,0,0,0,0,0,0,0,0],"split_type":[0,0,0,0,0,0,0,0,0,0,0,0,0,0,0],"sum_hessian":[7.9365364E1,2.4492506E1,5.4872856E1,1.705989E1,7.4326143E0,3.202994E1,2.2842916E1,1.5975231E1,1.0846595E0,2.5909896E0,4.8416247E0,2.7740377E1,4.289564E0,5.7521615E0,1.7090754E1],"tree_param":{"num_deleted":"0","num_feature":"4","num_nodes":"15","size_leaf_vector":"1"}},{"base_weights":[6.279329E-3,7.233117E-1,-3.1208256E-1,9.10964E-1,2.4489678E-1,8.137526E-2,-4.4375992E-1,4.7758773E-2,6.202148E-3,-3.1091357E-2,2.3909273E-2,2.9942635E-2,-2.1466639E-2,-7.729747E-2,-1.7979264E-2],"categories":[],"categories_nodes":[],"categories_segments":[],"categories_sizes":[],"default_left":[0,0,0,0,0,0,0,0,0,0,0,0,0,0,0],"id":19,"left_children":[1,3,5,7,9,11,13,-1,-1,-1,-1,-1,-1,-1,-1],"loss_changes":[1.8462236E1,2.0092068E0,2.93862E0,4.9008942E-1,1.9903469E0,4.19295E0,3.352769E0,0E0,0E0,0E0,0E0,0E0,0E0,0E0,0E0],"parents":[2147483647,0,0,1,1,2,2,3,3,4,4,5,5,6,6],"right_children":[2,4,6,8,10,12,14,-1,-1,-1,-1,-1,-1,-1,-1],"split_conditions":[-1.7069647E-2,-1.01544615E-2,-8.348362E-3,3.4604058E-2,-1.7045386E-2,1.5053124E-2,-6.676917E-3,4.7758773E-2,6.202148E-3,-3.1091357E-2,2.3909273E-2,2.9942635E-2,-2.1466639E-2,-7.729747E-2,-1.7979264E-2],"split_indices":[0,2,0,3,1,3,0,0,0,0,0,0,0,0,0],"split_type":[0,0,0,0,0,0,0,0,0,0,0,0,0,0,0],"sum_hessian":[7.888802E1,2.3865295E1,5.5022728E1,1.6492275E1,7.3730187E0,1.3892707E1,4.113002E1,1.5412542E1,1.0797331E0,1.2104437E0,6.1625752E0,6.8148913E0,7.0778155E0,1.6861002E0,3.944392E1],"tree_param":{"num_deleted":"0","num_feature":"4","num_nodes":"15","size_leaf_vector":"1"}},{"base_weights":[5.740791E-3,7.074131E-1,-2.9740927E-1,8.973503E-1,2.3414788E-1,-3.396309E-1,3.7670996E-2,4.7114905E-2,6.055487E-3,4.0425025E-2,-7.56064E-3,-1.3173505E-2,-6.2292643E-2],"categories":[],"categories_nodes":[],"categories_segments":[],"categories_sizes":[],"default_left":[0,0,0,0,0,0,0,0,0,0,0,0,0],"id":20,"left_children":[1,3,5,7,9,11,-1,-1,-1,-1,-1,-1,-1],"loss_changes":[1.7091938E1,1.9687967E0,2.7459707E0,4.7707462E-1,1.9582375E0,3.4432917E0,0E0,0E0,0E0,0E0,0E0,0E0,0E0],"parents":[2147483647,0,0,1,1,2,2,3,3,4,4,5,5],"right_children":[2,4,6,8,10,12,-1,-1,-1,-1,-1,-1,-1],"split_conditions":[-1.7069647E-2,-1.01544615E-2,3.0284656E-2,3.4604058E-2,-3.197761E-2,2.7182853E-2,3.7670996E-2,4.7114905E-2,6.055487E-3,4.0425025E-2,-7.56064E-3,-1.3173505E-2,-6.2292643E-2],"split_indices":[0,2,3,3,0,2,0,0,0,0,0,0,0],"split_type":[0,0,0,0,0,0,0,0,0,0,0,0,0],"sum_hessian":[7.8363396E1,2.3239536E1,5.5123856E1,1.594442E1,7.295116E0,5.3645226E1,1.4786322E0,1.4869485E1,1.0749347E0,2.4883587E0,4.806757E0,5.067696E1,2.9682646E0],"tree_param":{"num_deleted":"0","num_feature":"4","num_nodes":"13","size_leaf_vector":"1"}},{"base_weights":[6.306509E-3,5.001188E-1,-3.9703912E-1,4.731254E-2,2.5275782E-1,-9.674908E-1,-3.2579753E-1,3.0056361E-2,-3.3238705E-3,-4.4511314E-3,-7.37443E-2,-1.0439226E-3,-2.6803626E-2],"categories":[],"categories_nodes":[],"categories_segments":[],"categories_sizes":[],"default_left":[0,0,0,0,0,0,0,0,0,0,0,0,0],"id":21,"left_children":[1,3,5,-1,7,9,11,-1,-1,-1,-1,-1,-1],"loss_changes":[1.5923539E1,3.7266655E0,1.4734712E0,0E0,2.762769E0,1.8203979E0,2.5941434E0,0E0,0E0,0E0,0E0,0E0,0E0],"parents":[2147483647,0,0,1,1,2,2,4,4,5,5,6,6],"right_children":[2,4,6,-1,8,10,12,-1,-1,-1,-1,-1,-1],"split_conditions":[-8.932052E-3,-3.197761E-2,-6.676917E-3,4.731254E-2,1.5204493E-2,-8.348362E-3,3.554494E-5,3.0056361E-2,-3.3238705E-3,-4.4511314E-3,-7.37443E-2,-1.0439226E-3,-2.6803626E-2],"split_indices":[0,0,0,0,3,0,0,0,0,0,0,0,0],"split_type":[0,0,0,0,0,0,0,0,0,0,0,0,0],"sum_hessian":[7.794972E1,3.493689E1,4.3012836E1,1.1453808E1,2.3483082E1,3.3786457E0,3.963419E1,1.0806897E1,1.2676185E1,1.6673551E0,1.7112906E0,1.6625254E1,2.3008936E1],"tree_param":{"num_deleted":"0","num_feature":"4","num_nodes":"13","size_leaf_vector":"1"}},{"base_weights":[5.8124247E-3,6.798686E-1,-2.715104E-1,8.7455946E-1,2.1216893E-1,-5.231245E-2,-4.8372912E-1,4.608381E-2,4.9664737E-3,-3.1325165E-2,2.2374054E-2,-3.841367E-2,5.746785E-3,3.0299423E-2,-2.914974E-2],"categories":[],"categories_nodes":[],"categories_segments":[],"categories_sizes":[],"default_left":[0,0,0,0,0,0,0,0,0,0,0,0,0,0,0],"id":22,"left_children":[1,3,5,7,9,11,13,-1,-1,-1,-1,-1,-1,-1,-1],"loss_changes":[1.484636E1,1.9222822E0,2.5929785E0,4.9376202E-1,1.8836521E0,3.5379496E0,3.4336624E0,0E0,0E0,0E0,0E0,0E0,0E0,0E0,0E0],"parents":[2147483647,0,0,1,1,2,2,3,3,4,4,5,5,6,6],"right_children":[2,4,6,8,10,12,14,-1,-1,-1,-1,-1,-1,-1,-1],"split_conditions":[-1.7069647E-2,-1.01544615E-2,-1.08863926E-4,3.4604058E-2,-1.7045386E-2,7.804412E-3,-4.3015E-2,4.608381E-2,4.9664737E-3,-3.1325165E-2,2.2374054E-2,-3.841367E-2,5.746785E-3,3.0299423E-2,-2.914974E-2],"split_indices":[0,2,1,3,1,3,2,0,0,0,0,0,0,0,0],"split_type":[0,0,0,0,0,0,0,0,0,0,0,0,0,0,0],"sum_hessian":[7.743406E1,2.2148573E1,5.528549E1,1.50244E1,7.124173E0,2.7808725E1,2.7476765E1,1.3985486E1,1.038914E0,1.1966779E0,5.927495E0,4.585474E0,2.322325E1,1.8677936E0,2.560897E1],"tree_param":{"num_deleted":"0","num_feature":"4","num_nodes":"15","size_leaf_vector":"1"}},{"base_weights":[5.893941E-3,4.7511098E-1,-3.6428E-1,4.6380967E-2,2.3544988E-1,-9.2212445E-1,-2.951532E-1,2.8968487E-2,-3.655737E-3,-4.276778E-3,-7.008702E-2,-2.5329736E-4,-2.4784695E-2],"categories":[],"categories_nodes":[],"categories_segments":[],"categories_sizes":[],"default_left":[0,0,0,0,0,0,0,0,0,0,0,0,0],"id":23,"left_children":[1,3,5,-1,7,9,11,-1,-1,-1,-1,-1,-1],"loss_changes":[1.3719756E1,3.558744E0,1.4308705E0,0E0,2.6009195E0,1.6449645E0,2.3689718E0,0E0,0E0,0E0,0E0,0E0,0E0],"parents":[2147483647,0,0,1,1,2,2,4,4,5,5,6,6],"right_children":[2,4,6,-1,8,10,12,-1,-1,-1,-1,-1,-1],"split_conditions":[-8.932052E-3,-3.197761E-2,-6.676917E-3,4.6380967E-2,1.5204493E-2,-8.348362E-3,3.554494E-5,2.8968487E-2,-3.655737E-3,-4.276778E-3,-7.008702E-2,-2.5329736E-4,-2.4784695E-2],"split_indices":[0,0,0,0,3,0,0,0,0,0,0,0,0],"split_type":[0,0,0,0,0,0,0,0,0,0,0,0,0],"sum_hessian":[7.699259E1,3.3828945E1,4.3163643E1,1.0719231E1,2.3109716E1,3.3985078E0,3.9765137E1,1.0513716E1,1.2596001E1,1.6677725E0,1.7307353E0,1.6672785E1,2.309235E1],"tree_param":{"num_deleted":"0","num_feature":"4","num_nodes":"13","size_leaf_vector":"1"}},{"base_weights":[5.448761E-3,6.5173364E-1,-2.4810833E-1,8.522117E-1,1.8698066E-1,-2.8864145E-1,3.7582543E-2,4.50787E-2,3.929327E-3,3.8480014E-2,-8.6958E-3,-1.0816666E-2,-5.7599325E-2],"categories":[],"categories_nodes":[],"categories_segments":[],"categories_sizes":[],"default_left":[0,0,0,0,0,0,0,0,0,0,0,0,0],"id":24,"left_children":[1,3,5,7,9,11,-1,-1,-1,-1,-1,-1,-1],"loss_changes":[1.2860331E1,1.9008331E0,2.5016909E0,5.0833225E-1,1.8043424E0,3.1784215E0,0E0,0E0,0E0,0E0,0E0,0E0,0E0],"parents":[2147483647,0,0,1,1,2,2,3,3,4,4,5,5],"right_children":[2,4,6,8,10,12,-1,-1,-1,-1,-1,-1,-1],"split_conditions":[-1.7069647E-2,-1.01544615E-2,3.0284656E-2,3.4604058E-2,-3.197761E-2,2.7182853E-2,3.7582543E-2,4.50787E-2,3.929327E-3,3.8480014E-2,-8.6958E-3,-1.0816666E-2,-5.7599325E-2],"split_indices":[0,2,3,3,0,2,0,0,0,0,0,0,0],"split_type":[0,0,0,0,0,0,0,0,0,0,0,0,0],"sum_hessian":[7.649204E1,2.11114E1,5.5380642E1,1.41666975E1,6.9447026E0,5.390641E1,1.4742324E0,1.316152E1,1.0051783E0,2.2231905E0,4.7215123E0,5.0894405E1,3.0120065E0],"tree_param":{"num_deleted":"0","num_feature":"4","num_nodes":"13","size_leaf_vector":"1"}},{"base_weights":[6.0032615E-3,6.3783294E-1,-2.3572831E-1,8.391134E-1,1.8254748E-1,-2.7468625E-1,3.6959644E-2,4.4464022E-2,3.8365622E-3,-3.143711E-2,2.0961918E-2,-8.26831E-3,-4.1101888E-2],"categories":[],"categories_nodes":[],"categories_segments":[],"categories_sizes":[],"default_left":[0,0,0,0,0,0,0,0,0,0,0,0,0],"id":25,"left_children":[1,3,5,7,9,11,-1,-1,-1,-1,-1,-1,-1],"loss_changes":[1.1926491E1,1.8267679E0,2.3488538E0,4.9414253E-1,1.7808945E0,3.1583729E0,0E0,0E0,0E0,0E0,0E0,0E0,0E0],"parents":[2147483647,0,0,1,1,2,2,3,3,4,4,5,5],"right_children":[2,4,6,8,10,12,-1,-1,-1,-1,-1,-1,-1],"split_conditions":[-1.7069647E-2,-1.01544615E-2,3.0284656E-2,3.4604058E-2,-1.7045386E-2,6.4988183E-3,3.6959644E-2,4.4464022E-2,3.8365622E-3,-3.143711E-2,2.0961918E-2,-8.26831E-3,-4.1101888E-2],"split_indices":[0,2,3,3,1,1,0,0,0,0,0,0,0],"split_type":[0,0,0,0,0,0,0,0,0,0,0,0,0],"sum_hessian":[7.610268E1,2.0605673E1,5.5497E1,1.3704083E1,6.9015894E0,5.40552E1,1.4418027E0,1.27018175E1,1.0022665E0,1.1846519E0,5.7169375E0,4.6141655E1,7.913543E0],"tree_param":{"num_deleted":"0","num_feature":"4","num_nodes":"13","size_leaf_vector":"1"}},{"base_weights":[6.236186E-3,4.4357723E-1,-3.2371023E-1,4.5024663E-2,2.1823627E-1,-6.805712E-1,-2.2480442E-1,-3.184651E-2,1.6470416E-2,1.47032095E-2,-4.540499E-2,2.0930305E-2,-1.848135E-2],"categories":[],"categories_nodes":[],"categories_segments":[],"categories_sizes":[],"default_left":[0,0,0,0,0,0,0,0,0,0,0,0,0],"id":26,"left_children":[1,3,5,-1,7,9,11,-1,-1,-1,-1,-1,-1],"loss_changes":[1.1212666E1,3.2432456E0,1.4106398E0,0E0,2.4623861E0,2.2895818E0,3.526046E0,0E0,0E0,0E0,0E0,0E0,0E0],"parents":[2147483647,0,0,1,1,2,2,4,4,5,5,6,6],"right_children":[2,4,6,-1,8,10,12,-1,-1,-1,-1,-1,-1],"split_conditions":[-8.932052E-3,-3.197761E-2,8.98827E-3,4.5024663E-2,-1.6450621E-2,4.388753E-3,1.0637729E-2,-3.184651E-2,1.6470416E-2,1.47032095E-2,-4.540499E-2,2.0930305E-2,-1.848135E-2],"split_indices":[0,0,3,0,1,3,3,0,0,0,0,0,0],"split_type":[0,0,0,0,0,0,0,0,0,0,0,0,0],"sum_hessian":[7.5709236E1,3.240814E1,4.3301094E1,9.714417E0,2.2693724E1,8.120522E0,3.5180573E1,2.0667176E0,2.0627005E1,1.4815904E0,6.6389313E0,6.1164093E0,2.9064163E1],"tree_param":{"num_deleted":"0","num_feature":"4","num_nodes":"13","size_leaf_vector":"1"}},{"base_weights":[6.1331727E-3,6.100624E-1,-2.1436337E-1,8.169517E-1,1.582724E-1,-1.5325399E-1,-9.124211E-1,1.4245137E-2,4.6199027E-2,3.7251614E-2,-9.361717E-3,1.1030111E-2,-1.3170311E-2,-7.5330526E-2,-1.1168077E-4],"categories":[],"categories_nodes":[],"categories_segments":[],"categories_sizes":[],"default_left":[0,0,0,0,0,0,0,0,0,0,0,0,0,0,0],"id":27,"left_children":[1,3,5,7,9,11,13,-1,-1,-1,-1,-1,-1,-1,-1],"loss_changes":[1.0282849E1,1.8008657E0,2.2740574E0,5.2963066E-1,1.7058643E0,2.250345E0,2.3509119E0,0E0,0E0,0E0,0E0,0E0,0E0,0E0,0E0],"parents":[2147483647,0,0,1,1,2,2,3,3,4,4,5,5,6,6],"right_children":[2,4,6,8,10,12,14,-1,-1,-1,-1,-1,-1,-1,-1],"split_conditions":[-1.7069647E-2,-1.01544615E-2,2.7182853E-2,-4.98632E-2,-3.197761E-2,-8.932052E-3,3.93682E-2,1.4245137E-2,4.6199027E-2,3.7251614E-2,-9.361717E-3,1.1030111E-2,-1.3170311E-2,-7.5330526E-2,-1.1168077E-4],"split_indices":[0,2,2,2,0,0,2,0,0,0,0,0,0,0,0],"split_type":[0,0,0,0,0,0,0,0,0,0,0,0,0,0,0],"sum_hessian":[7.5237206E1,1.9650013E1,5.5587193E1,1.29236145E1,6.7263985E0,5.223406E1,3.3531318E0,2.7776446E0,1.014597E1,2.0643134E0,4.662085E0,1.16594E1,4.0574657E1,1.6322742E0,1.7208575E0],"tree_param":{"num_deleted":"0","num_feature":"4","num_nodes":"15","size_leaf_vector":"1"}},{"base_weights":[6.151776E-3,5.9695476E-1,-2.0499918E-1,8.042345E-1,1.54854E-1,-5.026967E-3,-3.9977318E-1,1.3841062E-2,4.564634E-2,3.1347536E-2,-1.3257566E-2,-1.0646772E-2,2.6451722E-2,-7.605088E-2,-1.4455241E-2],"categories":[],"categories_nodes":[],"categories_segments":[],"categories_sizes":[],"default_left":[0,0,0,0,0,0,0,0,0,0,0,0,0,0,0],"id":28,"left_children":[1,3,5,7,9,11,13,-1,-1,-1,-1,-1,-1,-1,-1],"loss_changes":[9.578165E0,1.7277608E0,2.2019665E0,5.2248096E-1,1.6911149E0,3.32525E0,3.1156688E0,0E0,0E0,0E0,0E0,0E0,0E0,0E0,0E0],"parents":[2147483647,0,0,1,1,2,2,3,3,4,4,5,5,6,6],"right_children":[2,4,6,8,10,12,14,-1,-1,-1,-1,-1,-1,-1,-1],"split_conditions":[-1.7069647E-2,-1.01544615E-2,-1.08863926E-4,-4.98632E-2,1.7741423E-2,6.187468E-3,7.2591804E-4,1.3841062E-2,4.564634E-2,3.1347536E-2,-1.3257566E-2,-1.0646772E-2,2.6451722E-2,-7.605088E-2,-1.4455241E-2],"split_indices":[0,2,1,2,3,2,1,0,0,0,0,0,0,0,0],"split_type":[0,0,0,0,0,0,0,0,0,0,0,0,0,0,0],"sum_hessian":[7.479876E1,1.9213106E1,5.5585655E1,1.25226965E1,6.6904087E0,2.7932987E1,2.7652666E1,2.745824E0,9.776873E0,2.917897E0,3.7725117E0,2.0538647E1,7.3943415E0,1.3393202E0,2.6313347E1],"tree_param":{"num_deleted":"0","num_feature":"4","num_nodes":"15","size_leaf_vector":"1"}},{"base_weights":[6.0581826E-3,4.0926272E-1,-2.8447133E-1,8.7489605E-1,1.9337998E-1,-8.33982E-1,-2.181566E-1,4.7477406E-2,1.9014642E-2,2.6751215E-2,-5.1144785E-3,-2.1873382E-3,-6.5212846E-2,2.610843E-3,-2.041856E-2],"categories":[],"categories_nodes":[],"categories_segments":[],"categories_sizes":[],"default_left":[0,0,0,0,0,0,0,0,0,0,0,0,0,0,0],"id":29,"left_children":[1,3,5,7,9,11,13,-1,-1,-1,-1,-1,-1,-1,-1],"loss_changes":[8.957904E0,3.049408E0,1.4381151E0,2.910614E-3,2.3942053E0,1.5904083E0,2.1311579E0,0E0,0E0,0E0,0E0,0E0,0E0,0E0,0E0],"parents":[2147483647,0,0,1,1,2,2,3,3,4,4,5,5,6,6],"right_children":[2,4,6,8,10,12,14,-1,-1,-1,-1,-1,-1,-1,-1],"split_conditions":[-8.932052E-3,-3.197761E-2,-6.676917E-3,8.317272E-3,1.5204493E-2,-8.348362E-3,3.554494E-5,4.7477406E-2,1.9014642E-2,2.6751215E-2,-5.1144785E-3,-2.1873382E-3,-6.5212846E-2,2.610843E-3,-2.041856E-2],"split_indices":[0,0,0,1,3,0,0,0,0,0,0,0,0,0,0],"split_type":[0,0,0,0,0,0,0,0,0,0,0,0,0,0,0],"sum_hessian":[7.447608E1,3.1018755E1,4.3457325E1,8.858779E0,2.2159977E1,3.4331057E0,4.002422E1,6.8978477E0,1.9609315E0,9.9051285E0,1.2254848E1,1.688622E0,1.7444837E0,1.6828896E1,2.3195324E1],"tree_param":{"num_deleted":"0","num_feature":"4","num_nodes":"15","size_leaf_vector":"1"}},{"base_weights":[5.954369E-3,5.7196057E-1,-1.8843846E-1,7.834089E-1,1.3660622E-1,-1.2885077E-1,-8.7351954E-1,1.2677175E-2,4.4812497E-2,-3.1421512E-2,1.8688235E-2,-2.693826E-2,-1.2692008E-3,-7.222182E-2,1.5583448E-4],"categories":[],"categories_nodes":[],"categories_segments":[],"categories_sizes":[],"default_left":[0,0,0,0,0,0,0,0,0,0,0,0,0,0,0],"id":30,"left_children":[1,3,5,7,9,11,13,-1,-1,-1,-1,-1,-1,-1,-1],"loss_changes":[8.365627E0,1.6820393E0,2.1987224E0,5.4226875E-1,1.6073775E0,2.245231E0,2.1853592E0,0E0,0E0,0E0,0E0,0E0,0E0,0E0,0E0],"parents":[2147483647,0,0,1,1,2,2,3,3,4,4,5,5,6,6],"right_children":[2,4,6,8,10,12,14,-1,-1,-1,-1,-1,-1,-1,-1],"split_conditions":[-1.7069647E-2,-1.01544615E-2,2.7182853E-2,-4.98632E-2,-1.7045386E-2,8.98827E-3,3.93682E-2,1.2677175E-2,4.4812497E-2,-3.1421512E-2,1.8688235E-2,-2.693826E-2,-1.2692008E-3,-7.222182E-2,1.5583448E-4],"split_indices":[0,2,2,2,1,3,2,0,0,0,0,0,0,0,0],"split_type":[0,0,0,0,0,0,0,0,0,0,0,0,0,0,0],"sum_hessian":[7.405254E1,1.8434683E1,5.5617863E1,1.18700285E1,6.5646553E0,5.2260387E1,3.3574758E0,2.6541064E0,9.215921E0,1.1630391E0,5.401616E0,9.684646E0,4.257574E1,1.6410346E0,1.716441E0],"tree_param":{"num_deleted":"0","num_feature":"4","num_nodes":"15","size_leaf_vector":"1"}},{"base_weights":[5.065758E-3,3.886001E-1,-2.6407638E-1,8.5859865E-1,1.7931032E-1,-8.0317384E-1,-1.9939904E-1,4.682579E-2,1.7956257E-2,2.5747493E-2,-5.258338E-3,-1.9596831E-3,-6.296591E-2,-3.0897914E-2,-4.229297E-3],"categories":[],"categories_nodes":[],"categories_segments":[],"categories_sizes":[],"default_left":[0,0,0,0,0,0,0,0,0,0,0,0,0,0,0],"id":31,"left_children":[1,3,5,7,9,11,13,-1,-1,-1,-1,-1,-1,-1,-1],"loss_changes":[7.8132067E0,2.9157538E0,1.3910859E0,2.7590275E-2,2.2364938E0,1.4963663E0,1.9206288E0,0E0,0E0,0E0,0E0,0E0,0E0,0E0,0E0],"parents":[2147483647,0,0,1,1,2,2,3,3,4,4,5,5,6,6],"right_children":[2,4,6,8,10,12,14,-1,-1,-1,-1,-1,-1,-1,-1],"split_conditions":[-8.932052E-3,-3.197761E-2,-6.676917E-3,8.317272E-3,1.5204493E-2,-8.348362E-3,8.98827E-3,4.682579E-2,1.7956257E-2,2.5747493E-2,-5.258338E-3,-1.9596831E-3,-6.296591E-2,-3.0897914E-2,-4.229297E-3],"split_indices":[0,0,0,1,3,0,3,0,0,0,0,0,0,0,0],"split_type":[0,0,0,0,0,0,0,0,0,0,0,0,0,0,0],"sum_hessian":[7.36967E1,3.0207048E1,4.3489655E1,8.350972E0,2.1856075E1,3.4355507E0,4.0054104E1,6.467108E0,1.8838643E0,9.654764E0,1.2201311E1,1.690356E0,1.7451946E0,7.678672E0,3.237543E1],"tree_param":{"num_deleted":"0","num_feature":"4","num_nodes":"15","size_leaf_vector":"1"}},{"base_weights":[4.7551035E-3,8.488518E-1,-1.10889405E-1,4.641227E-2,1.7548356E-2,1.723377E-1,-2.529858E-1,-3.1372707E-2,1.4109713E-2,-3.89054E-2,-9.507997E-3],"categories":[],"categories_nodes":[],"categories_segments":[],"categories_sizes":[],"default_left":[0,0,0,0,0,0,0,0,0,0,0],"id":32,"left_children":[1,3,5,-1,-1,7,9,-1,-1,-1,-1],"loss_changes":[7.347513E0,3.2706738E-2,2.7093382E0,0E0,0E0,2.173639E0,1.3205736E0,0E0,0E0,0E0,0E0],"parents":[2147483647,0,0,1,1,2,2,5,5,6,6],"right_children":[2,4,6,-1,-1,8,10,-1,-1,-1,-1],"split_conditions":[-3.197761E-2,8.317272E-3,-8.932052E-3,4.641227E-2,1.7548356E-2,-1.6450621E-2,-6.676917E-3,-3.1372707E-2,1.4109713E-2,-3.89054E-2,-9.507997E-3],"split_indices":[0,1,0,0,0,1,0,0,0,0,0],"split_type":[0,0,0,0,0,0,0,0,0,0,0],"sum_hessian":[7.330593E1,8.069072E0,6.5236855E1,6.2138257E0,1.8552462E0,2.1723892E1,4.3512966E1,2.0545466E0,1.9669346E1,3.4330554E0,4.007991E1],"tree_param":{"num_deleted":"0","num_feature":"4","num_nodes":"11","size_leaf_vector":"1"}},{"base_weights":[4.624187E-3,8.391511E-1,-1.0649694E-1,4.600201E-2,1.7148413E-2,4.0236615E-2,-3.618405E-1,-3.633321E-2,5.10308E-3,1.0046205E-2,-2.7667586E-2],"categories":[],"categories_nodes":[],"categories_segments":[],"categories_sizes":[],"default_left":[0,0,0,0,0,0,0,0,0,0,0],"id":33,"left_children":[1,3,5,-1,-1,7,9,-1,-1,-1,-1],"loss_changes":[6.943981E0,3.7590504E-2,2.4918637E0,0E0,0E0,2.1077075E0,2.7225227E0,0E0,0E0,0E0,0E0],"parents":[2147483647,0,0,1,1,2,2,5,5,6,6],"right_children":[2,4,6,-1,-1,8,10,-1,-1,-1,-1],"split_conditions":[-3.197761E-2,8.317272E-3,3.554494E-5,4.600201E-2,1.7148413E-2,-1.6450621E-2,-6.4820834E-3,-3.633321E-2,5.10308E-3,1.0046205E-2,-2.7667586E-2],"split_indices":[0,1,0,0,0,1,1,0,0,0,0],"split_type":[0,0,0,0,0,0,0,0,0,0,0],"sum_hessian":[7.29173E1,7.7984853E0,6.511881E1,5.9708614E0,1.8276237E0,4.188942E1,2.3229395E1,2.3228111E0,3.956661E1,5.885483E0,1.7343912E1],"tree_param":{"num_deleted":"0","num_feature":"4","num_nodes":"11","size_leaf_vector":"1"}},{"base_weights":[4.692515E-3,8.294892E-1,-1.02001525E-1,4.559446E-2,1.6756292E-2,-4.5918975E-2,-7.8291893E-1,1.2081809E-2,-9.594233E-3,-7.267778E-2,6.639782E-3],"categories":[],"categories_nodes":[],"categories_segments":[],"categories_sizes":[],"default_left":[0,0,0,0,0,0,0,0,0,0,0],"id":34,"left_children":[1,3,5,-1,-1,7,9,-1,-1,-1,-1],"loss_changes":[6.560774E0,4.2236328E-2,2.486462E0,0E0,0E0,2.6524456E0,3.2415154E0,0E0,0E0,0E0,0E0],"parents":[2147483647,0,0,1,1,2,2,5,5,6,6],"right_children":[2,4,6,-1,-1,8,10,-1,-1,-1,-1],"split_conditions":[-3.197761E-2,8.317272E-3,2.7182853E-2,4.559446E-2,1.6756292E-2,-8.932052E-3,3.93682E-2,1.2081809E-2,-9.594233E-3,-7.267778E-2,6.639782E-3],"split_indices":[0,1,2,0,0,0,2,0,0,0,0],"split_type":[0,0,0,0,0,0,0,0,0,0,0],"sum_hessian":[7.259204E1,7.538822E0,6.5053215E1,5.737867E0,1.8009552E0,6.1089153E1,3.9640625E0,2.0347923E1,4.074123E1,1.9491954E0,2.014867E0],"tree_param":{"num_deleted":"0","num_feature":"4","num_nodes":"11","size_leaf_vector":"1"}},{"base_weights":[4.5592636E-3,8.198603E-1,-9.80032E-2,4.5189116E-2,1.6371964E-2,-4.365214E-2,-7.551225E-1,1.159255E-2,-9.11884E-3,-6.990029E-2,6.4252983E-3],"categories":[],"categories_nodes":[],"categories_segments":[],"categories_sizes":[],"default_left":[0,0,0,0,0,0,0,0,0,0,0],"id":35,"left_children":[1,3,5,-1,-1,7,9,-1,-1,-1,-1],"loss_changes":[6.203926E0,4.663849E-2,2.322162E0,0E0,0E0,2.4105608E0,3.0064363E0,0E0,0E0,0E0,0E0],"parents":[2147483647,0,0,1,1,2,2,5,5,6,6],"right_children":[2,4,6,-1,-1,8,10,-1,-1,-1,-1],"split_conditions":[-3.197761E-2,8.317272E-3,2.7182853E-2,4.5189116E-2,1.6371964E-2,-8.932052E-3,3.93682E-2,1.159255E-2,-9.11884E-3,-6.990029E-2,6.4252983E-3],"split_indices":[0,1,2,0,0,0,2,0,0,0,0],"split_type":[0,0,0,0,0,0,0,0,0,0,0],"sum_hessian":[7.223164E1,7.289709E0,6.494193E1,5.514501E0,1.7752079E0,6.0965816E1,3.9761205E0,2.0192598E1,4.0773216E1,1.9646332E0,2.0114872E0],"tree_param":{"num_deleted":"0","num_feature":"4","num_nodes":"11","size_leaf_vector":"1"}},{"base_weights":[4.4489536E-3,8.102593E-1,-9.4165914E-2,4.478554E-2,1.599531E-2,-4.14938E-2,-7.2883266E-1,1.1120315E-2,-8.667687E-3,-6.7315824E-2,6.21769E-3],"categories":[],"categories_nodes":[],"categories_segments":[],"categories_sizes":[],"default_left":[0,0,0,0,0,0,0,0,0,0,0],"id":36,"left_children":[1,3,5,-1,-1,7,9,-1,-1,-1,-1],"loss_changes":[5.8677816E0,5.0795555E-2,2.1704137E0,0E0,0E0,2.1906605E0,2.7933095E0,0E0,0E0,0E0,0E0],"parents":[2147483647,0,0,1,1,2,2,5,5,6,6],"right_children":[2,4,6,-1,-1,8,10,-1,-1,-1,-1],"split_conditions":[-3.197761E-2,8.317272E-3,2.7182853E-2,4.478554E-2,1.599531E-2,-8.932052E-3,3.93682E-2,1.1120315E-2,-8.667687E-3,-6.7315824E-2,6.21769E-3],"split_indices":[0,1,2,0,0,0,2,0,0,0,0],"split_type":[0,0,0,0,0,0,0,0,0,0,0],"sum_hessian":[7.1881035E1,7.0507703E0,6.483027E1,5.300425E0,1.750345E0,6.0845936E1,3.9843323E0,2.0043953E1,4.0801983E1,1.9761387E0,2.0081935E0],"tree_param":{"num_deleted":"0","num_feature":"4","num_nodes":"11","size_leaf_vector":"1"}},{"base_weights":[4.3586674E-3,8.006822E-1,-9.0483695E-2,4.438334E-2,1.5626242E-2,-3.943906E-2,-7.0391923E-1,7.606292E-6,-4.447025E-2,-6.490263E-2,6.016734E-3],"categories":[],"categories_nodes":[],"categories_segments":[],"categories_sizes":[],"default_left":[0,0,0,0,0,0,0,0,0,0,0],"id":37,"left_children":[1,3,5,-1,-1,7,9,-1,-1,-1,-1],"loss_changes":[5.5510683E0,5.4706097E-2,2.0300596E0,0E0,0E0,2.077407E0,2.5994377E0,0E0,0E0,0E0,0E0],"parents":[2147483647,0,0,1,1,2,2,5,5,6,6],"right_children":[2,4,6,-1,-1,8,10,-1,-1,-1,-1],"split_conditions":[-3.197761E-2,8.317272E-3,2.7182853E-2,4.438334E-2,1.5626242E-2,2.0778164E-2,3.93682E-2,7.606292E-6,-4.447025E-2,-6.490263E-2,6.016734E-3],"split_indices":[0,1,2,0,0,0,2,0,0,0,0],"split_type":[0,0,0,0,0,0,0,0,0,0,0],"sum_hessian":[7.154028E1,6.8216367E0,6.471864E1,5.0953035E0,1.7263329E0,6.0729565E1,3.9890811E0,5.898202E1,1.7475455E0,1.9840962E0,2.0049849E0],"tree_param":{"num_deleted":"0","num_feature":"4","num_nodes":"11","size_leaf_vector":"1"}},{"base_weights":[3.619157E-3,7.911256E-1,-8.753079E-2,1.5091404E-2,4.4020306E-2,-3.818944E-2,-6.802668E-1,1.0664362E-2,-8.147358E-3,-6.264213E-2,5.8222204E-3],"categories":[],"categories_nodes":[],"categories_segments":[],"categories_sizes":[],"default_left":[0,0,0,0,0,0,0,0,0,0,0],"id":38,"left_children":[1,3,5,-1,-1,7,9,-1,-1,-1,-1],"loss_changes":[5.260462E0,6.635761E-2,1.8960373E0,0E0,0E0,1.9713666E0,2.4225411E0,0E0,0E0,0E0,0E0],"parents":[2147483647,0,0,1,1,2,2,5,5,6,6],"right_children":[2,4,6,-1,-1,8,10,-1,-1,-1,-1],"split_conditions":[-3.197761E-2,-4.98632E-2,2.7182853E-2,1.5091404E-2,4.4020306E-2,-8.932052E-3,3.93682E-2,1.0664362E-2,-8.147358E-3,-6.264213E-2,5.8222204E-3],"split_indices":[0,2,2,0,0,0,2,0,0,0,0],"split_type":[0,0,0,0,0,0,0,0,0,0,0],"sum_hessian":[7.132E1,6.6019425E0,6.4718056E1,1.6947306E0,4.9072123E0,6.072734E1,3.99072E0,1.990162E1,4.0825718E1,1.98886E0,2.0018601E0],"tree_param":{"num_deleted":"0","num_feature":"4","num_nodes":"11","size_leaf_vector":"1"}},{"base_weights":[3.5932874E-3,7.8156626E-1,-8.411342E-2,4.363246E-2,1.4554666E-2,1.7228805E-2,-3.521095E-1,1.2891821E-2,-1.3024847E-2,3.865991E-2,-2.969176E-2],"categories":[],"categories_nodes":[],"categories_segments":[],"categories_sizes":[],"default_left":[0,0,0,0,0,0,0,0,0,0,0],"id":39,"left_children":[1,3,5,-1,-1,7,9,-1,-1,-1,-1],"loss_changes":[4.9782004E0,7.617712E-2,1.7878137E0,0E0,0E0,3.3118215E0,5.36836E0,0E0,0E0,0E0,0E0],"parents":[2147483647,0,0,1,1,2,2,5,5,6,6],"right_children":[2,4,6,-1,-1,8,10,-1,-1,-1,-1],"split_conditions":[-3.197761E-2,8.317272E-3,2.840673E-3,4.363246E-2,1.4554666E-2,1.5204493E-2,-9.17277E-3,1.2891821E-2,-1.3024847E-2,3.865991E-2,-2.969176E-2],"split_indices":[0,1,0,0,0,3,1,0,0,0,0],"split_type":[0,0,0,0,0,0,0,0,0,0,0],"sum_hessian":[7.0994896E1,6.391358E0,6.460354E1,4.7331862E0,1.6581713E0,4.7556023E1,1.7047512E1,2.551914E1,2.2036884E1,2.6256485E0,1.4421864E1],"tree_param":{"num_deleted":"0","num_feature":"4","num_nodes":"11","size_leaf_vector":"1"}},{"base_weights":[4.435654E-3,7.7202475E-1,-7.978049E-2,1.4041019E-2,4.327085E-2,-3.234709E-2,-6.488086E-1,2.572432E-4,-4.1935954E-2,1.1278263E-2,-5.6453925E-2],"categories":[],"categories_nodes":[],"categories_segments":[],"categories_sizes":[],"default_left":[0,0,0,0,0,0,0,0,0,0,0],"id":40,"left_children":[1,3,5,-1,-1,7,9,-1,-1,-1,-1],"loss_changes":[4.700975E0,8.677912E-2,1.7490665E0,0E0,0E0,1.8662128E0,2.3516383E0,0E0,0E0,0E0,0E0],"parents":[2147483647,0,0,1,1,2,2,5,5,6,6],"right_children":[2,4,6,-1,-1,8,10,-1,-1,-1,-1],"split_conditions":[-3.197761E-2,-4.98632E-2,2.7182853E-2,1.4041019E-2,4.327085E-2,2.0778164E-2,-3.027433E-3,2.572432E-4,-4.1935954E-2,1.1278263E-2,-5.6453925E-2],"split_indices":[0,2,2,0,0,0,1,0,0,0,0],"split_type":[0,0,0,0,0,0,0,0,0,0,0],"sum_hessian":[7.076885E1,6.189292E0,6.457956E1,1.6288913E0,4.5604005E0,6.058604E1,3.9935226E0,5.8843742E1,1.7422974E0,1.6038709E0,2.3896518E0],"tree_param":{"num_deleted":"0","num_feature":"4","num_nodes":"11","size_leaf_vector":"1"}},{"base_weights":[3.8675135E-3,7.6247877E-1,-7.7132426E-2,4.288595E-2,1.3525212E-2,-3.141266E-2,-6.259945E-1,2.4460984E-4,-4.067852E-2,-5.9181977E-2,6.7194896E-3],"categories":[],"categories_nodes":[],"categories_segments":[],"categories_sizes":[],"default_left":[0,0,0,0,0,0,0,0,0,0,0],"id":41,"left_children":[1,3,5,-1,-1,7,9,-1,-1,-1,-1],"loss_changes":[4.45609E0,9.5769405E-2,1.6256378E0,0E0,0E0,1.7525326E0,2.2744405E0,0E0,0E0,0E0,0E0],"parents":[2147483647,0,0,1,1,2,2,5,5,6,6],"right_children":[2,4,6,-1,-1,8,10,-1,-1,-1,-1],"split_conditions":[-3.197761E-2,8.317272E-3,2.7182853E-2,4.288595E-2,1.3525212E-2,2.0778164E-2,3.93682E-2,2.4460984E-4,-4.067852E-2,-5.9181977E-2,6.7194896E-3],"split_indices":[0,1,2,0,0,0,2,0,0,0,0],"split_type":[0,0,0,0,0,0,0,0,0,0,0],"sum_hessian":[7.0561584E1,5.9956393E0,6.456595E1,4.4003615E0,1.5952779E0,6.0577152E1,3.9887953E0,5.8839775E1,1.7373787E0,1.9800485E0,2.0087469E0],"tree_param":{"num_deleted":"0","num_feature":"4","num_nodes":"11","size_leaf_vector":"1"}},{"base_weights":[3.2231428E-3,7.529482E-1,-7.4713126E-2,1.3032696E-2,4.2525064E-2,1.3190511E-1,-1.8786865E-1,2.6967514E-2,-9.403966E-3,-5.9075832E-2,-5.8536264E-3],"categories":[],"categories_nodes":[],"categories_segments":[],"categories_sizes":[],"default_left":[0,0,0,0,0,0,0,0,0,0,0],"id":42,"left_children":[1,3,5,-1,-1,7,9,-1,-1,-1,-1],"loss_changes":[4.2258773E0,1.0535574E-1,1.5573442E0,0E0,0E0,3.2021987E0,2.870184E0,0E0,0E0,0E0,0E0],"parents":[2147483647,0,0,1,1,2,2,5,5,6,6],"right_children":[2,4,6,-1,-1,8,10,-1,-1,-1,-1],"split_conditions":[-3.197761E-2,-4.98632E-2,-8.348362E-3,1.3032696E-2,4.2525064E-2,1.5204493E-2,-6.676917E-3,2.6967514E-2,-9.403966E-3,-5.9075832E-2,-5.8536264E-3],"split_indices":[0,2,0,0,0,3,0,0,0,0,0],"split_type":[0,0,0,0,0,0,0,0,0,0,0],"sum_hessian":[7.036004E1,5.809849E0,6.455019E1,1.5681609E0,4.241688E0,2.2783175E1,4.1767017E1,9.720385E0,1.3062789E1,1.7344476E0,4.003257E1],"tree_param":{"num_deleted":"0","num_feature":"4","num_nodes":"11","size_leaf_vector":"1"}},{"base_weights":[3.2736484E-3,7.43414E-1,-7.177744E-2,4.214237E-2,1.2537985E-2,4.3306902E-2,-2.7096763E-1,-5.76061E-3,1.8100932E-2,1.1377367E-2,-2.2228075E-2],"categories":[],"categories_nodes":[],"categories_segments":[],"categories_sizes":[],"default_left":[0,0,0,0,0,0,0,0,0,0,0],"id":43,"left_children":[1,3,5,-1,-1,7,9,-1,-1,-1,-1],"loss_changes":[4.001584E0,1.13515854E-1,1.5119841E0,0E0,0E0,2.1809142E0,2.187037E0,0E0,0E0,0E0,0E0],"parents":[2147483647,0,0,1,1,2,2,5,5,6,6],"right_children":[2,4,6,-1,-1,8,10,-1,-1,-1,-1],"split_conditions":[-3.197761E-2,8.317272E-3,3.554494E-5,4.214237E-2,1.2537985E-2,-1.6146323E-3,-6.4820834E-3,-5.76061E-3,1.8100932E-2,1.1377367E-2,-2.2228075E-2],"split_indices":[0,1,0,0,0,2,1,0,0,0,0],"split_type":[0,0,0,0,0,0,0,0,0,0,0],"sum_hessian":[7.007725E1,5.6318197E0,6.444543E1,4.094575E0,1.5372448E0,4.1342136E1,2.3103294E1,2.8036167E1,1.3305968E1,5.8868985E0,1.7216396E1],"tree_param":{"num_deleted":"0","num_feature":"4","num_nodes":"11","size_leaf_vector":"1"}},{"base_weights":[3.9687064E-3,4.373562E-1,-1.17878295E-1,6.8226653E-1,1.9769692E-3,-1.541982E-1,3.7070654E-2,3.8592417E-3,4.1398518E-2,-2.0701183E-2,2.6696345E-2,-2.9046636E-3,-3.230117E-2],"categories":[],"categories_nodes":[],"categories_segments":[],"categories_sizes":[],"default_left":[0,0,0,0,0,0,0,0,0,0,0,0,0],"id":44,"left_children":[1,3,5,7,9,11,-1,-1,-1,-1,-1,-1,-1],"loss_changes":[3.793805E0,1.6795573E0,1.8652494E0,8.252983E-1,1.6988686E0,2.5458484E0,0E0,0E0,0E0,0E0,0E0,0E0,0E0],"parents":[2147483647,0,0,1,1,2,2,3,3,4,4,5,5],"right_children":[2,4,6,8,10,12,-1,-1,-1,-1,-1,-1,-1],"split_conditions":[-1.7069647E-2,-1.01544615E-2,3.0284656E-2,-4.98632E-2,-2.940867E-3,6.4988183E-3,3.7070654E-2,3.8592417E-3,4.1398518E-2,-2.0701183E-2,2.6696345E-2,-2.9046636E-3,-3.230117E-2],"split_indices":[0,2,3,2,1,1,0,0,0,0,0,0,0],"split_type":[0,0,0,0,0,0,0,0,0,0,0,0,0],"sum_hessian":[6.98666E1,1.4764079E1,5.510252E1,9.085963E0,5.678116E0,5.3655212E1,1.4473075E0,2.0601723E0,7.025791E0,3.310721E0,2.367395E0,4.581991E1,7.8353043E0],"tree_param":{"num_deleted":"0","num_feature":"4","num_nodes":"13","size_leaf_vector":"1"}},{"base_weights":[4.6348553E-3,7.2839713E-1,-6.598929E-2,4.1571278E-2,1.1721061E-2,-2.162251E-2,-6.0096437E-1,6.46342E-4,-3.846438E-2,1.1416781E-2,-5.3190608E-2],"categories":[],"categories_nodes":[],"categories_segments":[],"categories_sizes":[],"default_left":[0,0,0,0,0,0,0,0,0,0,0],"id":45,"left_children":[1,3,5,-1,-1,7,9,-1,-1,-1,-1],"loss_changes":[3.6582906E0,1.2889671E-1,1.5361265E0,0E0,0E0,1.5935633E0,2.1471014E0,0E0,0E0,0E0,0E0],"parents":[2147483647,0,0,1,1,2,2,5,5,6,6],"right_children":[2,4,6,-1,-1,8,10,-1,-1,-1,-1],"split_conditions":[-3.197761E-2,8.317272E-3,2.7182853E-2,4.1571278E-2,1.1721061E-2,2.0778164E-2,-3.027433E-3,6.46342E-4,-3.846438E-2,1.1416781E-2,-5.3190608E-2],"split_indices":[0,1,2,0,0,0,1,0,0,0,0],"split_type":[0,0,0,0,0,0,0,0,0,0,0],"sum_hessian":[6.962932E1,5.3623E0,6.426701E1,3.8716595E0,1.4906405E0,6.0306103E1,3.9609137E0,5.8581768E1,1.7243335E0,1.6002909E0,2.360623E0],"tree_param":{"num_deleted":"0","num_feature":"4","num_nodes":"11","size_leaf_vector":"1"}},{"base_weights":[4.0825163E-3,7.188807E-1,-6.393944E-2,1.1334069E-2,4.1199077E-2,-2.1166869E-2,-5.804621E-1,6.1467144E-4,-3.736301E-2,-5.5954833E-2,7.262184E-3],"categories":[],"categories_nodes":[],"categories_segments":[],"categories_sizes":[],"default_left":[0,0,0,0,0,0,0,0,0,0,0],"id":46,"left_children":[1,3,5,-1,-1,7,9,-1,-1,-1,-1],"loss_changes":[3.4710069E0,1.3408542E-1,1.4290526E0,0E0,0E0,1.4982018E0,2.0979986E0,0E0,0E0,0E0,0E0],"parents":[2147483647,0,0,1,1,2,2,5,5,6,6],"right_children":[2,4,6,-1,-1,8,10,-1,-1,-1,-1],"split_conditions":[-3.197761E-2,-4.98632E-2,2.7182853E-2,1.1334069E-2,4.1199077E-2,2.0778164E-2,3.93682E-2,6.1467144E-4,-3.736301E-2,-5.5954833E-2,7.262184E-3],"split_indices":[0,2,2,0,0,0,2,0,0,0,0],"split_type":[0,0,0,0,0,0,0,0,0,0,0],"sum_hessian":[6.944227E1,5.2026515E0,6.4239624E1,1.4709275E0,3.7317238E0,6.028821E1,3.9514084E0,5.8572124E1,1.716089E0,1.9568856E0,1.9945229E0],"tree_param":{"num_deleted":"0","num_feature":"4","num_nodes":"11","size_leaf_vector":"1"}},{"base_weights":[3.4575276E-3,7.0937127E-1,-6.208341E-2,4.0829662E-2,1.0812289E-2,-2.0717012E-2,-5.623849E-1,9.708065E-3,-6.2960535E-3,1.1653546E-2,-5.062325E-2],"categories":[],"categories_nodes":[],"categories_segments":[],"categories_sizes":[],"default_left":[0,0,0,0,0,0,0,0,0,0,0],"id":47,"left_children":[1,3,5,-1,-1,7,9,-1,-1,-1,-1],"loss_changes":[3.294775E0,1.4328766E-1,1.3379502E0,0E0,0E0,1.40952E0,2.0052626E0,0E0,0E0,0E0,0E0],"parents":[2147483647,0,0,1,1,2,2,5,5,6,6],"right_children":[2,4,6,-1,-1,8,10,-1,-1,-1,-1],"split_conditions":[-3.197761E-2,8.317272E-3,2.7182853E-2,4.0829662E-2,1.0812289E-2,-8.932052E-3,-3.027433E-3,9.708065E-3,-6.2960535E-3,1.1653546E-2,-5.062325E-2],"split_indices":[0,1,2,0,0,0,1,0,0,0,0],"split_type":[0,0,0,0,0,0,0,0,0,0,0],"sum_hessian":[6.926148E1,5.0497227E0,6.421176E1,3.6090417E0,1.4406809E0,6.026988E1,3.9418812E0,1.953147E1,4.0738407E1,1.5986462E0,2.343235E0],"tree_param":{"num_deleted":"0","num_feature":"4","num_nodes":"11","size_leaf_vector":"1"}},{"base_weights":[3.5743231E-3,6.9987893E-1,-5.9627812E-2,1.0444491E-2,4.045709E-2,-1.965016E-2,-5.4352415E-1,6.3334516E-4,-3.6131755E-2,-5.3496238E-2,7.7397237E-3],"categories":[],"categories_nodes":[],"categories_segments":[],"categories_sizes":[],"default_left":[0,0,0,0,0,0,0,0,0,0,0],"id":48,"left_children":[1,3,5,-1,-1,7,9,-1,-1,-1,-1],"loss_changes":[3.1219928E0,1.4765477E-1,1.2484945E0,0E0,0E0,1.3986268E0,1.9777297E0,0E0,0E0,0E0,0E0],"parents":[2147483647,0,0,1,1,2,2,5,5,6,6],"right_children":[2,4,6,-1,-1,8,10,-1,-1,-1,-1],"split_conditions":[-3.197761E-2,-4.98632E-2,2.7182853E-2,1.0444491E-2,4.045709E-2,2.0778164E-2,3.93682E-2,6.3334516E-4,-3.6131755E-2,-5.3496238E-2,7.7397237E-3],"split_indices":[0,2,2,0,0,0,2,0,0,0,0],"split_type":[0,0,0,0,0,0,0,0,0,0,0],"sum_hessian":[6.899329E1,4.902981E0,6.409032E1,1.4225128E0,3.480468E0,6.016068E1,3.9296362E0,5.8455395E1,1.7052835E0,1.9372048E0,1.9924314E0],"tree_param":{"num_deleted":"0","num_feature":"4","num_nodes":"11","size_leaf_vector":"1"}},{"base_weights":[3.001884E-3,6.903989E-1,-5.7928573E-2,4.008932E-2,9.945215E-3,-1.925707E-2,-5.269543E-1,-2.9486885E-2,9.918074E-4,1.1854571E-2,-4.8271663E-2],"categories":[],"categories_nodes":[],"categories_segments":[],"categories_sizes":[],"default_left":[0,0,0,0,0,0,0,0,0,0,0],"id":49,"left_children":[1,3,5,-1,-1,7,9,-1,-1,-1,-1],"loss_changes":[2.9643471E0,1.559918E-1,1.1698852E0,0E0,0E0,1.3752652E0,1.8763905E0,0E0,0E0,0E0,0E0],"parents":[2147483647,0,0,1,1,2,2,5,5,6,6],"right_children":[2,4,6,-1,-1,8,10,-1,-1,-1,-1],"split_conditions":[-3.197761E-2,8.317272E-3,2.7182853E-2,4.008932E-2,9.945215E-3,-1.6450621E-2,-3.027433E-3,-2.9486885E-2,9.918074E-4,1.1854571E-2,-4.8271663E-2],"split_indices":[0,1,2,0,0,1,1,0,0,0,0],"split_type":[0,0,0,0,0,0,0,0,0,0,0],"sum_hessian":[6.8821266E1,4.762411E0,6.405885E1,3.3678353E0,1.394576E0,6.0141228E1,3.9176295E0,2.953653E0,5.7187572E1,1.5959637E0,2.3216658E0],"tree_param":{"num_deleted":"0","num_feature":"4","num_nodes":"11","size_leaf_vector":"1"}},{"base_weights":[2.6830714E-3,3.9422467E-1,-1.0065928E-1,6.166498E-1,-7.115541E-2,-1.3592096E-1,3.6677767E-2,1.7827789E-3,4.0689163E-2,-4.6157125E-2,2.1129612E-2,-2.3342362E-3,-2.9716024E-2],"categories":[],"categories_nodes":[],"categories_segments":[],"categories_sizes":[],"default_left":[0,0,0,0,0,0,0,0,0,0,0,0,0],"id":50,"left_children":[1,3,5,7,9,11,-1,-1,-1,-1,-1,-1,-1],"loss_changes":[2.8592658E0,1.5711756E0,1.7448884E0,1.1262546E0,2.774451E0,2.2017875E0,0E0,0E0,0E0,0E0,0E0,0E0,0E0],"parents":[2147483647,0,0,1,1,2,2,3,3,4,4,5,5],"right_children":[2,4,6,8,10,12,-1,-1,-1,-1,-1,-1,-1],"split_conditions":[-1.7069647E-2,2.2769447E-2,3.0284656E-2,-9.355099E-3,2.5138292E-2,6.4988183E-3,3.6677767E-2,1.7827789E-3,4.0689163E-2,-4.6157125E-2,2.1129612E-2,-2.3342362E-3,-2.9716024E-2],"split_indices":[0,3,3,1,3,1,0,0,0,0,0,0,0],"split_type":[0,0,0,0,0,0,0,0,0,0,0,0,0],"sum_hessian":[6.86833E1,1.3754761E1,5.492853E1,9.086762E0,4.667999E0,5.350402E1,1.424511E0,2.6012356E0,6.4855266E0,1.3936019E0,3.274397E0,4.570794E1,7.7960815E0],"tree_param":{"num_deleted":"0","num_feature":"4","num_nodes":"13","size_leaf_vector":"1"}},{"base_weights":[2.9718964E-3,6.73943E-1,-5.425263E-2,3.947166E-2,9.094438E-3,2.645499E-2,-2.6924872E-1,-2.3246866E-2,6.9755027E-3,3.785645E-2,-2.4737475E-2],"categories":[],"categories_nodes":[],"categories_segments":[],"categories_sizes":[],"default_left":[0,0,0,0,0,0,0,0,0,0,0],"id":51,"left_children":[1,3,5,-1,-1,7,9,-1,-1,-1,-1],"loss_changes":[2.703228E0,1.7079687E-1,1.1335919E0,0E0,0E0,2.7376502E0,4.4962697E0,0E0,0E0,0E0,0E0],"parents":[2147483647,0,0,1,1,2,2,5,5,6,6],"right_children":[2,4,6,-1,-1,8,10,-1,-1,-1,-1],"split_conditions":[-3.197761E-2,8.317272E-3,2.840673E-3,3.947166E-2,9.094438E-3,-9.355099E-3,-9.17277E-3,-2.3246866E-2,6.9755027E-3,3.785645E-2,-2.4737475E-2],"split_indices":[0,1,0,0,0,1,1,0,0,0,0],"split_type":[0,0,0,0,0,0,0,0,0,0,0],"sum_hessian":[6.845163E1,4.5322895E0,6.3919342E1,3.1812544E0,1.3510352E0,4.711118E1,1.6808165E1,8.229459E0,3.8881718E1,2.6029887E0,1.4205175E1],"tree_param":{"num_deleted":"0","num_feature":"4","num_nodes":"11","size_leaf_vector":"1"}},{"base_weights":[3.5343494E-3,6.6451716E-1,-5.162244E-2,8.570046E-3,3.9136477E-2,-1.4454146E-2,-5.042191E-1,-3.4540587E-3,1.9118601E-2,-5.0760705E-2,8.1349565E-3],"categories":[],"categories_nodes":[],"categories_segments":[],"categories_sizes":[],"default_left":[0,0,0,0,0,0,0,0,0,0,0],"id":52,"left_children":[1,3,5,-1,-1,7,9,-1,-1,-1,-1],"loss_changes":[2.5595274E0,1.8101549E-1,1.083764E0,0E0,0E0,1.3479826E0,1.832513E0,0E0,0E0,0E0,0E0],"parents":[2147483647,0,0,1,1,2,2,5,5,6,6],"right_children":[2,4,6,-1,-1,8,10,-1,-1,-1,-1],"split_conditions":[-3.197761E-2,-4.98632E-2,2.7182853E-2,8.570046E-3,3.9136477E-2,1.3847153E-2,3.93682E-2,-3.4540587E-3,1.9118601E-2,-5.0760705E-2,8.1349565E-3],"split_indices":[0,2,2,0,0,2,2,0,0,0,0],"split_type":[0,0,0,0,0,0,0,0,0,0,0],"sum_hessian":[6.8264496E1,4.4068084E0,6.385769E1,1.3258867E0,3.0809216E0,5.996515E1,3.8925412E0,5.3435184E1,6.5299635E0,1.9082143E0,1.9843268E0],"tree_param":{"num_deleted":"0","num_feature":"4","num_nodes":"11","size_leaf_vector":"1"}},{"base_weights":[3.6946347E-3,3.737986E-1,-9.1113575E-2,5.988663E-1,-8.578395E-2,-1.2516926E-1,3.609032E-2,1.8297135E-3,3.9858785E-2,-4.4362694E-2,2.0081934E-2,-2.0238636E-3,-2.8046155E-2],"categories":[],"categories_nodes":[],"categories_segments":[],"categories_sizes":[],"default_left":[0,0,0,0,0,0,0,0,0,0,0,0,0],"id":53,"left_children":[1,3,5,7,9,11,-1,-1,-1,-1,-1,-1,-1],"loss_changes":[2.460763E0,1.5304556E0,1.6367915E0,1.0550857E0,2.5344021E0,1.9873416E0,0E0,0E0,0E0,0E0,0E0,0E0,0E0],"parents":[2147483647,0,0,1,1,2,2,3,3,4,4,5,5],"right_children":[2,4,6,8,10,12,-1,-1,-1,-1,-1,-1,-1],"split_conditions":[-1.7069647E-2,2.2769447E-2,3.0284656E-2,-9.355099E-3,2.5138292E-2,6.4988183E-3,3.609032E-2,1.8297135E-3,3.9858785E-2,-4.4362694E-2,2.0081934E-2,-2.0238636E-3,-2.8046155E-2],"split_indices":[0,3,3,1,3,1,0,0,0,0,0,0,0],"split_type":[0,0,0,0,0,0,0,0,0,0,0,0,0],"sum_hessian":[6.815877E1,1.3299331E1,5.485944E1,8.723952E0,4.5753775E0,5.346563E1,1.3938128E0,2.5834777E0,6.140475E0,1.420065E0,3.1553125E0,4.5680225E1,7.785402E0],"tree_param":{"num_deleted":"0","num_feature":"4","num_nodes":"13","size_leaf_vector":"1"}},{"base_weights":[3.949317E-3,6.482043E-1,-4.787995E-2,3.8524684E-2,7.721524E-3,-1.222237E-2,-4.8366842E-1,9.2016964E-4,-3.4154687E-2,1.1918518E-2,-4.549297E-2],"categories":[],"categories_nodes":[],"categories_segments":[],"categories_sizes":[],"default_left":[0,0,0,0,0,0,0,0,0,0,0],"id":54,"left_children":[1,3,5,-1,-1,7,9,-1,-1,-1,-1],"loss_changes":[2.3329642E0,1.9511366E-1,1.0000353E0,0E0,0E0,1.2631183E0,1.7156241E0,0E0,0E0,0E0,0E0],"parents":[2147483647,0,0,1,1,2,2,5,5,6,6],"right_children":[2,4,6,-1,-1,8,10,-1,-1,-1,-1],"split_conditions":[-3.197761E-2,8.317272E-3,2.7182853E-2,3.8524684E-2,7.721524E-3,2.0778164E-2,-3.027433E-3,9.2016964E-4,-3.4154687E-2,1.1918518E-2,-4.549297E-2],"split_indices":[0,1,2,0,0,0,1,0,0,0,0],"split_type":[0,0,0,0,0,0,0,0,0,0,0],"sum_hessian":[6.7938034E1,4.2017946E0,6.3736237E1,2.9185593E0,1.2832355E0,5.9865868E1,3.870367E0,5.818237E1,1.6834995E0,1.6001468E0,2.2702203E0],"tree_param":{"num_deleted":"0","num_feature":"4","num_nodes":"11","size_leaf_vector":"1"}},{"base_weights":[3.4850012E-3,3.7940126E-2,-3.8623683E-2,1.305569E-1,-1.3621509E-1,2.6844716E-2,-8.886534E-3,-5.686195E-2,-3.2989103E-3],"categories":[],"categories_nodes":[],"categories_segments":[],"categories_sizes":[],"default_left":[0,0,0,0,0,0,0,0,0],"id":55,"left_children":[1,-1,3,5,7,-1,-1,-1,-1],"loss_changes":[2.2170203E0,0E0,1.1091923E0,3.1886652E0,2.9068165E0,0E0,0E0,0E0,0E0],"parents":[2147483647,0,0,2,2,3,3,4,4],"right_children":[2,-1,4,6,8,-1,-1,-1,-1],"split_conditions":[-4.2332247E-2,3.7940126E-2,-8.348362E-3,1.5204493E-2,-6.676917E-3,2.6844716E-2,-8.886534E-3,-5.686195E-2,-3.2989103E-3],"split_indices":[0,0,0,3,0,0,0,0,0],"split_type":[0,0,0,0,0,0,0,0,0],"sum_hessian":[6.7784256E1,2.6806393E0,6.5103615E1,2.3692846E1,4.141077E1,9.901142E0,1.3791705E1,1.7190598E0,3.969171E1],"tree_param":{"num_deleted":"0","num_feature":"4","num_nodes":"9","size_leaf_vector":"1"}},{"base_weights":[3.3199189E-3,3.752127E-2,-3.736467E-2,8.471429E-2,-1.6350761E-1,-6.42576E-3,2.720336E-2,-5.710609E-2,-3.8426742E-3],"categories":[],"categories_nodes":[],"categories_segments":[],"categories_sizes":[],"default_left":[0,0,0,0,0,0,0,0,0],"id":56,"left_children":[1,-1,3,5,7,-1,-1,-1,-1],"loss_changes":[2.1122034E0,0E0,1.029892E0,3.4185972E0,2.692914E0,0E0,0E0,0E0,0E0],"parents":[2147483647,0,0,2,2,3,3,4,4],"right_children":[2,-1,4,6,8,-1,-1,-1,-1],"split_conditions":[-4.2332247E-2,3.752127E-2,-2.783179E-5,-4.1347845E-3,7.2591804E-4,-6.42576E-3,2.720336E-2,-5.710609E-2,-3.8426742E-3],"split_indices":[0,0,1,1,1,0,0,0,0],"split_type":[0,0,0,0,0,0,0,0,0],"sum_hessian":[6.7567764E1,2.5885396E0,6.4979225E1,3.318845E1,3.179078E1,2.3158573E1,1.0029876E1,1.5952175E0,3.0195562E1],"tree_param":{"num_deleted":"0","num_feature":"4","num_nodes":"9","size_leaf_vector":"1"}},{"base_weights":[3.1668625E-3,6.218726E-1,-4.3842E-2,6.061058E-3,3.7635434E-2,-3.1328496E-1,1.3961134E-2,3.0654544E-2,-2.3856381E-2,5.2808773E-2,-1.9326363E-3],"categories":[],"categories_nodes":[],"categories_segments":[],"categories_sizes":[],"default_left":[0,0,0,0,0,0,0,0,0,0,0],"id":57,"left_children":[1,3,5,-1,-1,7,9,-1,-1,-1,-1],"loss_changes":[2.0191002E0,2.298398E-1,1.0102202E0,0E0,0E0,2.030426E0,3.0091553E0,0E0,0E0,0E0,0E0],"parents":[2147483647,0,0,1,1,2,2,5,5,6,6],"right_children":[2,4,6,-1,-1,8,10,-1,-1,-1,-1],"split_conditions":[-3.197761E-2,-4.98632E-2,8.98827E-3,6.061058E-3,3.7635434E-2,-1.5580565E-2,9.263326E-3,3.0654544E-2,-2.3856381E-2,5.2808773E-2,-1.9326363E-3],"split_indices":[0,2,3,0,0,0,3,0,0,0,0],"split_type":[0,0,0,0,0,0,0,0,0,0,0],"sum_hessian":[6.748409E1,3.9018023E0,6.358229E1,1.2075516E0,2.6942506E0,1.0450159E1,5.3132133E1,1.1584221E0,9.291737E0,1.6367178E0,5.1495415E1],"tree_param":{"num_deleted":"0","num_feature":"4","num_nodes":"11","size_leaf_vector":"1"}},{"base_weights":[4.5394236E-3,3.6818855E-2,-3.3716436E-2,4.062402E-2,-2.3884338E-1,1.3131919E-2,-1.0315372E-2,3.6748827E-2,-2.270663E-2],"categories":[],"categories_nodes":[],"categories_segments":[],"categories_sizes":[],"default_left":[0,0,0,0,0,0,0,0,0],"id":58,"left_children":[1,-1,3,5,7,-1,-1,-1,-1],"loss_changes":[1.9390733E0,0E0,1.0151256E0,2.7541149E0,4.0412707E0,0E0,0E0,0E0,0E0],"parents":[2147483647,0,0,2,2,3,3,4,4],"right_children":[2,-1,4,6,8,-1,-1,-1,-1],"split_conditions":[-4.2332247E-2,3.6818855E-2,2.840673E-3,1.5204493E-2,-9.17277E-3,1.3131919E-2,-1.0315372E-2,3.6748827E-2,-2.270663E-2],"split_indices":[0,0,0,3,1,0,0,0,0],"split_type":[0,0,0,0,0,0,0,0,0],"sum_hessian":[6.737304E1,2.440343E0,6.493269E1,4.8248734E1,1.668396E1,2.5372702E1,2.2876032E1,2.583606E0,1.4100354E1],"tree_param":{"num_deleted":"0","num_feature":"4","num_nodes":"9","size_leaf_vector":"1"}},{"base_weights":[5.146019E-3,3.3657724E-1,-7.56878E-2,5.6384325E-1,-1.0590783E-1,-1.0913495E-1,3.5902414E-2,4.2614305E-5,3.8616415E-2,-4.2699765E-2,1.8846525E-2,-1.5154731E-3,-2.5743736E-2],"categories":[],"categories_nodes":[],"categories_segments":[],"categories_sizes":[],"default_left":[0,0,0,0,0,0,0,0,0,0,0,0,0],"id":59,"left_children":[1,3,5,7,9,11,-1,-1,-1,-1,-1,-1,-1],"loss_changes":[1.8532542E0,1.4233782E0,1.5561318E0,1.0694652E0,2.2880533E0,1.7204399E0,0E0,0E0,0E0,0E0,0E0,0E0,0E0],"parents":[2147483647,0,0,1,1,2,2,3,3,4,4,5,5],"right_children":[2,4,6,8,10,12,-1,-1,-1,-1,-1,-1,-1],"split_conditions":[-1.7069647E-2,2.2769447E-2,3.0284656E-2,-9.355099E-3,2.5138292E-2,6.4988183E-3,3.5902414E-2,4.2614305E-5,3.8616415E-2,-4.2699765E-2,1.8846525E-2,-1.5154731E-3,-2.5743736E-2],"split_indices":[0,3,3,1,3,1,0,0,0,0,0,0,0],"split_type":[0,0,0,0,0,0,0,0,0,0,0,0,0],"sum_hessian":[6.722401E1,1.256044E1,5.4663567E1,8.117118E0,4.443322E0,5.3280876E1,1.3826915E0,2.4649308E0,5.6521873E0,1.4413941E0,3.001928E0,4.5513416E1,7.767462E0],"tree_param":{"num_deleted":"0","num_feature":"4","num_nodes":"13","size_leaf_vector":"1"}},{"base_weights":[5.3261938E-3,3.617718E-2,-3.0986711E-2,2.3427252E-3,-4.5030707E-1,-2.5653585E-3,1.9618679E-2,-4.7432486E-2,9.09175E-3],"categories":[],"categories_nodes":[],"categories_segments":[],"categories_sizes":[],"default_left":[0,0,0,0,0,0,0,0,0],"id":60,"left_children":[1,-1,3,5,7,-1,-1,-1,-1],"loss_changes":[1.7964611E0,0E0,9.193551E-1,1.314634E0,1.6982479E0,0E0,0E0,0E0,0E0],"parents":[2147483647,0,0,2,2,3,3,4,4],"right_children":[2,-1,4,6,8,-1,-1,-1,-1],"split_conditions":[-4.2332247E-2,3.617718E-2,2.9170653E-2,1.3847153E-2,3.93682E-2,-2.5653585E-3,1.9618679E-2,-4.7432486E-2,9.09175E-3],"split_indices":[0,0,2,2,2,0,0,0,0],"split_type":[0,0,0,0,0,0,0,0,0],"sum_hessian":[6.7021576E1,2.3147078E0,6.470686E1,6.086357E1,3.8432927E0,5.4267387E1,6.596186E0,1.8691093E0,1.9741836E0],"tree_param":{"num_deleted":"0","num_feature":"4","num_nodes":"9","size_leaf_vector":"1"}},{"base_weights":[5.3046765E-3,2.1489516E-1,-1.13837E-1,1.23680584E-1,4.0988386E-2,-5.074857E-1,-2.1739326E-2,3.5762917E-2,1.2438265E-3,-5.3794696E-3,-4.900529E-2,5.130616E-2,-4.7148285E-3],"categories":[],"categories_nodes":[],"categories_segments":[],"categories_sizes":[],"default_left":[0,0,0,0,0,0,0,0,0,0,0,0,0],"id":61,"left_children":[1,3,5,7,-1,9,11,-1,-1,-1,-1,-1,-1],"loss_changes":[1.7211063E0,1.2763582E0,1.5831823E0,1.3193614E0,0E0,1.4618447E0,2.8855956E0,0E0,0E0,0E0,0E0,0E0,0E0],"parents":[2147483647,0,0,1,1,2,2,3,3,5,5,6,6],"right_children":[2,4,6,8,-1,10,12,-1,-1,-1,-1,-1,-1],"split_conditions":[-8.932052E-3,-1.0211607E-2,-4.8432807E-3,-4.2332247E-2,4.0988386E-2,1.4628209E-2,-4.535992E-3,3.5762917E-2,1.2438265E-3,-5.3794696E-3,-4.900529E-2,5.130616E-2,-4.7148285E-3],"split_indices":[0,0,0,0,0,3,0,0,0,0,0,0,0],"split_type":[0,0,0,0,0,0,0,0,0,0,0,0,0],"sum_hessian":[6.694465E1,2.3971321E1,4.2973328E1,2.1876783E1,2.0945377E0,7.2926035E0,3.568072E1,2.23798E0,1.9638803E1,4.6152034E0,2.6774004E0,1.4595681E0,3.4221153E1],"tree_param":{"num_deleted":"0","num_feature":"4","num_nodes":"13","size_leaf_vector":"1"}},{"base_weights":[6.1283205E-3,3.535014E-2,-2.7760113E-2,-2.8204674E-1,2.583623E-2,3.110517E-2,-2.2569029E-2,5.1584125E-2,-1.171559E-3],"categories":[],"categories_nodes":[],"categories_segments":[],"categories_sizes":[],"default_left":[0,0,0,0,0,0,0,0,0],"id":62,"left_children":[1,-1,3,5,7,-1,-1,-1,-1],"loss_changes":[1.6297884E0,0E0,9.0171254E-1,2.0427713E0,2.755624E0,0E0,0E0,0E0,0E0],"parents":[2147483647,0,0,2,2,3,3,4,4],"right_children":[2,-1,4,6,8,-1,-1,-1,-1],"split_conditions":[-4.2332247E-2,3.535014E-2,8.98827E-3,-1.5580565E-2,9.263326E-3,3.110517E-2,-2.2569029E-2,5.1584125E-2,-1.171559E-3],"split_indices":[0,0,3,0,3,0,0,0,0],"split_type":[0,0,0,0,0,0,0,0,0],"sum_hessian":[6.679189E1,2.164451E0,6.462744E1,1.0508357E1,5.4119087E1,1.2358363E0,9.272521E0,1.5959344E0,5.2523155E1],"tree_param":{"num_deleted":"0","num_feature":"4","num_nodes":"9","size_leaf_vector":"1"}},{"base_weights":[7.258879E-3,3.493901E-2,-2.5466312E-2,8.717262E-2,-1.4195159E-1,-2.9994182E-3,3.7384722E-2,-5.4692652E-2,-2.8706635E-3],"categories":[],"categories_nodes":[],"categories_segments":[],"categories_sizes":[],"default_left":[0,0,0,0,0,0,0,0,0],"id":63,"left_children":[1,-1,3,5,7,-1,-1,-1,-1],"loss_changes":[1.549751E0,0E0,8.7311447E-1,3.3469203E0,2.5630436E0,0E0,0E0,0E0,0E0],"parents":[2147483647,0,0,2,2,3,3,4,4],"right_children":[2,-1,4,6,8,-1,-1,-1,-1],"split_conditions":[-4.2332247E-2,3.493901E-2,-2.783179E-5,-1.7421881E-3,7.2591804E-4,-2.9994182E-3,3.7384722E-2,-5.4692652E-2,-2.8706635E-3],"split_indices":[0,0,1,1,1,0,0,0,0],"split_type":[0,0,0,0,0,0,0,0,0],"sum_hessian":[6.66953E1,2.0939848E0,6.460131E1,3.2970825E1,3.1630484E1,2.770702E1,5.2638063E0,1.6061459E0,3.0024338E1],"tree_param":{"num_deleted":"0","num_feature":"4","num_nodes":"9","size_leaf_vector":"1"}},{"base_weights":[7.1077957E-3,2.0512688E-1,-1.04332924E-1,1.152907E-1,4.0379953E-2,-4.8441482E-1,-1.5488202E-2,1.6788088E-2,-6.7658275E-3,-4.6064653E-2,-3.7197636E-3,5.0148793E-2,-4.293139E-3],"categories":[],"categories_nodes":[],"categories_segments":[],"categories_sizes":[],"default_left":[0,0,0,0,0,0,0,0,0,0,0,0,0],"id":64,"left_children":[1,3,5,7,-1,9,11,-1,-1,-1,-1,-1,-1],"loss_changes":[1.514157E0,1.2435949E0,1.476551E0,1.2973757E0,0E0,1.4170753E0,2.713299E0,0E0,0E0,0E0,0E0,0E0,0E0],"parents":[2147483647,0,0,1,1,2,2,3,3,5,5,6,6],"right_children":[2,4,6,8,-1,10,12,-1,-1,-1,-1,-1,-1],"split_conditions":[-8.932052E-3,-1.0211607E-2,-4.8432807E-3,8.582295E-5,4.0379953E-2,-5.3923056E-3,-4.535992E-3,1.6788088E-2,-6.7658275E-3,-4.6064653E-2,-3.7197636E-3,5.0148793E-2,-4.293139E-3],"split_indices":[0,0,0,1,0,1,0,0,0,0,0,0,0],"split_type":[0,0,0,0,0,0,0,0,0,0,0,0,0],"sum_hessian":[6.664532E1,2.3697151E1,4.2948162E1,2.1658901E1,2.0382516E0,7.2935667E0,3.56546E1,1.13414755E1,1.0317425E1,2.9274273E0,4.3661394E0,1.4479429E0,3.4206654E1],"tree_param":{"num_deleted":"0","num_feature":"4","num_nodes":"13","size_leaf_vector":"1"}},{"base_weights":[7.497099E-3,3.4470335E-2,-2.401965E-2,4.83941E-3,-4.945906E-1,-2.4730243E-2,1.9651372E-3,-4.5715358E-2,2.6078105E-3],"categories":[],"categories_nodes":[],"categories_segments":[],"categories_sizes":[],"default_left":[0,0,0,0,0,0,0,0,0],"id":65,"left_children":[1,-1,3,5,7,-1,-1,-1,-1],"loss_changes":[1.4675779E0,0E0,8.9189106E-1,1.0987486E0,9.1844517E-1,0E0,0E0,0E0,0E0],"parents":[2147483647,0,0,2,2,3,3,4,4],"right_children":[2,-1,4,6,8,-1,-1,-1,-1],"split_conditions":[-4.2332247E-2,3.4470335E-2,1.893131E-2,-1.6450621E-2,2.7946732E-3,-2.4730243E-2,1.9651372E-3,-4.5715358E-2,2.6078105E-3],"split_indices":[0,0,0,1,2,0,0,0,0],"split_type":[0,0,0,0,0,0,0,0,0],"sum_hessian":[6.65157E1,2.016282E0,6.449942E1,6.170491E1,2.7945075E0,3.1211684E0,5.8583744E1,1.2005917E0,1.5939159E0],"tree_param":{"num_deleted":"0","num_feature":"4","num_nodes":"9","size_leaf_vector":"1"}},{"base_weights":[6.6823135E-3,3.044384E-1,-6.313421E-2,5.361623E-1,-1.3244751E-1,-9.545747E-2,3.5348896E-2,-1.3041185E-3,3.7627954E-2,-4.1514944E-2,1.736526E-2,-1.9749194E-2,4.7931084E-4],"categories":[],"categories_nodes":[],"categories_segments":[],"categories_sizes":[],"default_left":[0,0,0,0,0,0,0,0,0,0,0,0,0],"id":66,"left_children":[1,3,5,7,9,11,-1,-1,-1,-1,-1,-1,-1],"loss_changes":[1.4210943E0,1.3851153E0,1.4479085E0,1.0756879E0,2.0629935E0,1.7060325E0,0E0,0E0,0E0,0E0,0E0,0E0,0E0],"parents":[2147483647,0,0,1,1,2,2,3,3,4,4,5,5],"right_children":[2,4,6,8,10,12,-1,-1,-1,-1,-1,-1,-1],"split_conditions":[-1.7069647E-2,2.2769447E-2,3.0284656E-2,-9.355099E-3,2.5138292E-2,-2.2442015E-2,3.5348896E-2,-1.3041185E-3,3.7627954E-2,-4.1514944E-2,1.736526E-2,-1.9749194E-2,4.7931084E-4],"split_indices":[0,3,3,1,3,2,0,0,0,0,0,0,0],"split_type":[0,0,0,0,0,0,0,0,0,0,0,0,0],"sum_hessian":[6.643574E1,1.1980464E1,5.445527E1,7.6798444E0,4.300619E0,5.3102493E1,1.3527782E0,2.378769E0,5.3010755E0,1.454383E0,2.846236E0,1.3071013E1,4.003148E1],"tree_param":{"num_deleted":"0","num_feature":"4","num_nodes":"13","size_leaf_vector":"1"}},{"base_weights":[6.8592266E-3,3.3844937E-2,-2.3157809E-2,3.169244E-2,-2.6504853E-1,-2.0485055E-3,2.9022967E-2,-2.209239E-2,3.3709925E-2],"categories":[],"categories_nodes":[],"categories_segments":[],"categories_sizes":[],"default_left":[0,0,0,0,0,0,0,0,0],"id":67,"left_children":[1,-1,3,5,7,-1,-1,-1,-1],"loss_changes":[1.3688874E0,0E0,8.7563175E-1,2.1839995E0,2.3219423E0,0E0,0E0,0E0,0E0],"parents":[2147483647,0,0,2,2,3,3,4,4],"right_children":[2,-1,4,6,8,-1,-1,-1,-1],"split_conditions":[-4.2332247E-2,3.3844937E-2,6.4988183E-3,4.203564E-3,3.0284656E-2,-2.0485055E-3,2.9022967E-2,-2.209239E-2,3.3709925E-2],"split_indices":[0,0,1,1,3,0,0,0,0],"split_type":[0,0,0,0,0,0,0,0,0],"sum_hessian":[6.62818E1,1.9179899E0,6.436381E1,5.3175014E1,1.118879E1,4.7774506E1,5.4005094E0,9.86199E0,1.3268007E0],"tree_param":{"num_deleted":"0","num_feature":"4","num_nodes":"9","size_leaf_vector":"1"}},{"base_weights":[7.6367576E-3,1.8450455E-1,-1.0177504E-1,5.2061975E-1,-5.0184906E-2,-5.3695865E-2,-3.474924E-2,-1.0374642E-2,3.5574514E-2,-1.5232145E-2,2.5867805E-2,-2.2151664E-2,3.6790099E-3],"categories":[],"categories_nodes":[],"categories_segments":[],"categories_sizes":[],"default_left":[0,0,0,0,0,0,0,0,0,0,0,0,0],"id":68,"left_children":[1,3,5,7,9,-1,11,-1,-1,-1,-1,-1,-1],"loss_changes":[1.3195803E0,2.080705E0,2.7106814E0,1.6481264E0,2.5042303E0,0E0,1.8233159E0,0E0,0E0,0E0,0E0,0E0,0E0],"parents":[2147483647,0,0,1,1,2,2,3,3,4,4,6,6],"right_children":[2,4,6,8,10,-1,12,-1,-1,-1,-1,-1,-1],"split_conditions":[-8.348362E-3,1.5204493E-2,-6.676917E-3,-3.115324E-2,2.5138292E-2,-5.3695865E-2,8.98827E-3,-1.0374642E-2,3.5574514E-2,-1.5232145E-2,2.5867805E-2,-2.2151664E-2,3.6790099E-3],"split_indices":[0,3,0,2,3,0,3,0,0,0,0,0,0],"split_type":[0,0,0,0,0,0,0,0,0,0,0,0,0],"sum_hessian":[6.6219986E1,2.5045986E1,4.1174E1,9.796869E0,1.5249117E1,1.6867615E0,3.9487236E1,2.016698E0,7.7801714E0,1.0848429E1,4.400688E0,7.632256E0,3.185498E1],"tree_param":{"num_deleted":"0","num_feature":"4","num_nodes":"13","size_leaf_vector":"1"}},{"base_weights":[6.801288E-3,3.3399303E-2,-2.223258E-2,1.0257829E-2,-4.328323E-1,-2.0901659E-3,1.9334348E-2,-4.5707624E-2,8.937771E-3],"categories":[],"categories_nodes":[],"categories_segments":[],"categories_sizes":[],"default_left":[0,0,0,0,0,0,0,0,0],"id":69,"left_children":[1,-1,3,5,7,-1,-1,-1,-1],"loss_changes":[1.3017328E0,0E0,8.7403536E-1,1.2190773E0,1.5772414E0,0E0,0E0,0E0,0E0],"parents":[2147483647,0,0,2,2,3,3,4,4],"right_children":[2,-1,4,6,8,-1,-1,-1,-1],"split_conditions":[-4.2332247E-2,3.3399303E-2,2.9170653E-2,1.3847153E-2,3.93682E-2,-2.0901659E-3,1.9334348E-2,-4.5707624E-2,8.937771E-3],"split_indices":[0,0,2,2,2,0,0,0,0],"split_type":[0,0,0,0,0,0,0,0,0],"sum_hessian":[6.6036446E1,1.8520818E0,6.418436E1,6.0381443E1,3.8029153E0,5.38261E1,6.555344E0,1.8512552E0,1.9516602E0],"tree_param":{"num_deleted":"0","num_feature":"4","num_nodes":"9","size_leaf_vector":"1"}},{"base_weights":[6.688037E-3,3.299784E-2,-2.1424476E-2,6.693941E-3,-4.8045915E-1,-2.377621E-2,2.0090004E-3,-4.454593E-2,2.6065677E-3],"categories":[],"categories_nodes":[],"categories_segments":[],"categories_sizes":[],"default_left":[0,0,0,0,0,0,0,0,0],"id":70,"left_children":[1,-1,3,5,7,-1,-1,-1,-1],"loss_changes":[1.2440512E0,0E0,8.444619E-1,1.0267186E0,8.718346E-1,0E0,0E0,0E0,0E0],"parents":[2147483647,0,0,2,2,3,3,4,4],"right_children":[2,-1,4,6,8,-1,-1,-1,-1],"split_conditions":[-4.2332247E-2,3.299784E-2,1.893131E-2,-1.6450621E-2,2.7946732E-3,-2.377621E-2,2.0090004E-3,-4.454593E-2,2.6065677E-3],"split_indices":[0,0,0,1,2,0,0,0,0],"split_type":[0,0,0,0,0,0,0,0,0],"sum_hessian":[6.5970345E1,1.7945135E0,6.417583E1,6.1400146E1,2.775682E0,3.129723E0,5.8270424E1,1.1876081E0,1.5880737E0],"tree_param":{"num_deleted":"0","num_feature":"4","num_nodes":"9","size_leaf_vector":"1"}},{"base_weights":[5.9154094E-3,1.765243E-1,-9.871535E-2,5.0410956E-1,-4.8514143E-2,-5.242237E-2,-3.354375E-2,-1.0374854E-2,3.476508E-2,-2.7688613E-2,1.1289973E-2,-2.1156605E-2,3.4915989E-3],"categories":[],"categories_nodes":[],"categories_segments":[],"categories_sizes":[],"default_left":[0,0,0,0,0,0,0,0,0,0,0,0,0],"id":71,"left_children":[1,3,5,7,9,-1,11,-1,-1,-1,-1,-1,-1],"loss_changes":[1.2115973E0,1.9256109E0,2.5711138E0,1.5850236E0,2.3702817E0,0E0,1.658102E0,0E0,0E0,0E0,0E0,0E0,0E0],"parents":[2147483647,0,0,1,1,2,2,3,3,4,4,6,6],"right_children":[2,4,6,8,10,-1,12,-1,-1,-1,-1,-1,-1],"split_conditions":[-8.348362E-3,1.5204493E-2,-6.676917E-3,-3.115324E-2,1.8466584E-2,-5.242237E-2,8.98827E-3,-1.0374854E-2,3.476508E-2,-2.7688613E-2,1.1289973E-2,-2.1156605E-2,3.4915989E-3],"split_indices":[0,3,0,2,3,0,3,0,0,0,0,0,0],"split_type":[0,0,0,0,0,0,0,0,0,0,0,0,0],"sum_hessian":[6.5896866E1,2.4789106E1,4.1107754E1,9.589583E0,1.5199524E1,1.6708802E0,3.9436874E1,2.0127933E0,7.5767903E0,4.9898906E0,1.0209634E1,7.621365E0,3.181551E1],"tree_param":{"num_deleted":"0","num_feature":"4","num_nodes":"13","size_leaf_vector":"1"}},{"base_weights":[4.7675194E-3,3.256401E-2,-2.2520294E-2,9.495266E-3,-4.274802E-1,1.8880783E-3,-3.151026E-2,1.2491772E-2,-4.234739E-2],"categories":[],"categories_nodes":[],"categories_segments":[],"categories_sizes":[],"default_left":[0,0,0,0,0,0,0,0,0],"id":72,"left_children":[1,-1,3,5,7,-1,-1,-1,-1],"loss_changes":[1.191428E0,0E0,8.463675E-1,1.1301626E0,1.5701292E0,0E0,0E0,0E0,0E0],"parents":[2147483647,0,0,2,2,3,3,4,4],"right_children":[2,-1,4,6,8,-1,-1,-1,-1],"split_conditions":[-4.2332247E-2,3.256401E-2,2.9170653E-2,2.0778164E-2,-3.027433E-3,1.8880783E-3,-3.151026E-2,1.2491772E-2,-4.234739E-2],"split_indices":[0,0,2,0,1,0,0,0,0],"split_type":[0,0,0,0,0,0,0,0,0],"sum_hessian":[6.5702545E1,1.7347665E0,6.396778E1,6.0186104E1,3.7816763E0,5.8540363E1,1.6457397E0,1.6009754E0,2.180701E0],"tree_param":{"num_deleted":"0","num_feature":"4","num_nodes":"9","size_leaf_vector":"1"}},{"base_weights":[4.1391454E-3,3.216791E-2,-2.233674E-2,9.972721E-2,-1.21626504E-1,-9.112085E-3,2.5975456E-2,-2.3182785E-2,3.5094891E-3],"categories":[],"categories_nodes":[],"categories_segments":[],"categories_sizes":[],"default_left":[0,0,0,0,0,0,0,0,0],"id":73,"left_children":[1,-1,3,5,7,-1,-1,-1,-1],"loss_changes":[1.1413409E0,0E0,7.9880136E-1,3.6059453E0,2.410388E0,0E0,0E0,0E0,0E0],"parents":[2147483647,0,0,2,2,3,3,4,4],"right_children":[2,-1,4,6,8,-1,-1,-1,-1],"split_conditions":[-4.2332247E-2,3.216791E-2,-1.0877206E-2,-2.2442015E-2,-2.2269976E-3,-9.112085E-3,2.5975456E-2,-2.3182785E-2,3.5094891E-3],"split_indices":[0,0,2,2,2,0,0,0,0],"split_type":[0,0,0,0,0,0,0,0,0],"sum_hessian":[6.55905E1,1.6819779E0,6.3908524E1,2.866464E1,3.524388E1,1.7485462E1,1.1179177E1,1.2154287E1,2.3089594E1],"tree_param":{"num_deleted":"0","num_feature":"4","num_nodes":"9","size_leaf_vector":"1"}},{"base_weights":[4.4111675E-3,2.7362034E-1,-5.6400232E-2,5.1239604E-1,-1.668894E-1,-8.7048665E-2,3.4327008E-2,-2.3193422E-3,3.673474E-2,-3.938153E-2,1.5084638E-2,-1.8208444E-2,5.584161E-4],"categories":[],"categories_nodes":[],"categories_segments":[],"categories_sizes":[],"default_left":[0,0,0,0,0,0,0,0,0,0,0,0,0],"id":74,"left_children":[1,3,5,7,9,11,-1,-1,-1,-1,-1,-1,-1],"loss_changes":[1.1053685E0,1.3938637E0,1.3152637E0,1.0665843E0,1.7288105E0,1.4695196E0,0E0,0E0,0E0,0E0,0E0,0E0,0E0],"parents":[2147483647,0,0,1,1,2,2,3,3,4,4,5,5],"right_children":[2,4,6,8,10,12,-1,-1,-1,-1,-1,-1,-1],"split_conditions":[-1.7069647E-2,2.2769447E-2,3.0284656E-2,-9.355099E-3,2.5138292E-2,-2.2442015E-2,3.4327008E-2,-2.3193422E-3,3.673474E-2,-3.938153E-2,1.5084638E-2,-1.8208444E-2,5.584161E-4],"split_indices":[0,3,3,1,3,2,0,0,0,0,0,0,0],"split_type":[0,0,0,0,0,0,0,0,0,0,0,0,0],"sum_hessian":[6.55773E1,1.1438798E1,5.4138504E1,7.312118E0,4.12668E0,5.2841473E1,1.2970308E0,2.306272E0,5.0058465E0,1.4822413E0,2.6444385E0,1.3118813E1,3.972266E1],"tree_param":{"num_deleted":"0","num_feature":"4","num_nodes":"13","size_leaf_vector":"1"}},{"base_weights":[4.671159E-3,3.1567805E-2,-2.0581609E-2,3.22856E-2,-2.536945E-1,-1.9058352E-3,2.8329644E-2,-2.09098E-2,3.2518093E-2],"categories":[],"categories_nodes":[],"categories_segments":[],"categories_sizes":[],"default_left":[0,0,0,0,0,0,0,0,0],"id":75,"left_children":[1,-1,3,5,7,-1,-1,-1,-1],"loss_changes":[1.0643839E0,0E0,8.0717367E-1,2.042861E0,2.0711498E0,0E0,0E0,0E0,0E0],"parents":[2147483647,0,0,2,2,3,3,4,4],"right_children":[2,-1,4,6,8,-1,-1,-1,-1],"split_conditions":[-4.2332247E-2,3.1567805E-2,6.4988183E-3,4.203564E-3,3.0284656E-2,-1.9058352E-3,2.8329644E-2,-2.09098E-2,3.2518093E-2],"split_indices":[0,0,1,1,3,0,0,0,0],"split_type":[0,0,0,0,0,0,0,0,0],"sum_hessian":[6.54363E1,1.604976E0,6.3831326E1,5.27335E1,1.1097824E1,4.7414635E1,5.318866E0,9.844033E0,1.2537909E0],"tree_param":{"num_deleted":"0","num_feature":"4","num_nodes":"9","size_leaf_vector":"1"}},{"base_weights":[5.5206604E-3,1.6456512E-1,-9.077855E-2,4.8465842E-1,-5.1176272E-2,-5.0906014E-2,-2.7665662E-2,5.587233E-4,4.083214E-2,-2.6416456E-2,1.0703172E-2,-2.0141354E-2,3.5925582E-3],"categories":[],"categories_nodes":[],"categories_segments":[],"categories_sizes":[],"default_left":[0,0,0,0,0,0,0,0,0,0,0,0,0],"id":76,"left_children":[1,3,5,7,9,-1,11,-1,-1,-1,-1,-1,-1],"loss_changes":[1.0316682E0,1.7782612E0,2.4295526E0,1.6128683E0,2.147241E0,0E0,1.5352141E0,0E0,0E0,0E0,0E0,0E0,0E0],"parents":[2147483647,0,0,1,1,2,2,3,3,4,4,6,6],"right_children":[2,4,6,8,10,-1,12,-1,-1,-1,-1,-1,-1],"split_conditions":[-8.348362E-3,1.5204493E-2,-6.676917E-3,1.0521785E-2,1.8466584E-2,-5.0906014E-2,8.98827E-3,5.587233E-4,4.083214E-2,-2.6416456E-2,1.0703172E-2,-2.0141354E-2,3.5925582E-3],"split_indices":[0,3,0,3,3,0,3,0,0,0,0,0,0],"split_type":[0,0,0,0,0,0,0,0,0,0,0,0,0],"sum_hessian":[6.538409E1,2.4391325E1,4.0992764E1,9.318735E0,1.507259E1,1.6478943E0,3.9344868E1,4.2668757E0,5.0518594E0,5.030708E0,1.00418825E1,7.6097155E0,3.1735153E1],"tree_param":{"num_deleted":"0","num_feature":"4","num_nodes":"13","size_leaf_vector":"1"}},{"base_weights":[4.6832287E-3,3.10456E-2,-1.9607551E-2,1.1906204E-2,-4.2009124E-1,-1.878183E-3,1.8458096E-2,1.1926222E-2,-4.140368E-2],"categories":[],"categories_nodes":[],"categories_segments":[],"categories_sizes":[],"default_left":[0,0,0,0,0,0,0,0,0],"id":77,"left_children":[1,-1,3,5,7,-1,-1,-1,-1],"loss_changes":[1.0032222E0,0E0,8.2114285E-1,1.0905603E0,1.4724934E0,0E0,0E0,0E0,0E0],"parents":[2147483647,0,0,2,2,3,3,4,4],"right_children":[2,-1,4,6,8,-1,-1,-1,-1],"split_conditions":[-4.2332247E-2,3.10456E-2,2.9170653E-2,1.3847153E-2,-3.027433E-3,-1.878183E-3,1.8458096E-2,1.1926222E-2,-4.140368E-2],"split_indices":[0,0,2,2,1,0,0,0,0],"split_type":[0,0,0,0,0,0,0,0,0],"sum_hessian":[6.520809E1,1.5414584E0,6.3666634E1,5.992171E1,3.744923E0,5.341947E1,6.5022383E0,1.5913404E0,2.1535828E0],"tree_param":{"num_deleted":"0","num_feature":"4","num_nodes":"9","size_leaf_vector":"1"}},{"base_weights":[4.7368463E-3,1.4241971E-1,-1.0366872E-1,-2.4815744E-2,8.5575587E-1,-3.8954806E-1,7.2247885E-2,2.1873454E-2,-8.710866E-3,1.7288102E-2,5.4953396E-2,3.752866E-3,-4.8163828E-2,2.0601723E-2,-1.8578181E-2],"categories":[],"categories_nodes":[],"categories_segments":[],"categories_sizes":[],"default_left":[0,0,0,0,0,0,0,0,0,0,0,0,0,0,0],"id":78,"left_children":[1,3,5,7,9,11,13,-1,-1,-1,-1,-1,-1,-1,-1],"loss_changes":[1.0020634E0,3.5476537E0,1.9184597E0,1.7972201E0,3.2011318E-1,3.9307387E0,3.7892947E0,0E0,0E0,0E0,0E0,0E0,0E0,0E0,0E0],"parents":[2147483647,0,0,1,1,2,2,3,3,4,4,5,5,6,6],"right_children":[2,4,6,8,10,12,14,-1,-1,-1,-1,-1,-1,-1,-1],"split_conditions":[-1.1642474E-2,-1.6763112E-2,-2.2269976E-3,-1.7069647E-2,1.2530089E-2,1.2697919E-2,-3.0155742E-4,2.1873454E-2,-8.710866E-3,1.7288102E-2,5.4953396E-2,3.752866E-3,-4.8163828E-2,2.0601723E-2,-1.8578181E-2],"split_indices":[2,2,2,0,3,3,0,0,0,0,0,0,0,0,0],"split_type":[0,0,0,0,0,0,0,0,0,0,0,0,0,0,0],"sum_hessian":[6.514806E1,2.856046E1,3.6587605E1,2.3918245E1,4.6422133E0,1.3475077E1,2.3112528E1,5.3709807E0,1.8547264E1,2.281385E0,2.3608284E0,7.925876E0,5.5492E0,1.3130944E1,9.981584E0],"tree_param":{"num_deleted":"0","num_feature":"4","num_nodes":"15","size_leaf_vector":"1"}},{"base_weights":[5.2403943E-3,1.3889599E-1,-9.963414E-2,-3.1311046E-2,7.9953563E-1,-3.7134463E-1,6.9034554E-2,-6.8366467E-3,3.1827055E-2,6.437602E-3,5.5221945E-2,3.588238E-3,-4.562161E-2,1.9770196E-2,-1.7752009E-2],"categories":[],"categories_nodes":[],"categories_segments":[],"categories_sizes":[],"default_left":[0,0,0,0,0,0,0,0,0,0,0,0,0,0,0],"id":79,"left_children":[1,3,5,7,9,11,13,-1,-1,-1,-1,-1,-1,-1,-1],"loss_changes":[9.387244E-1,3.3341215E0,1.7467206E0,1.802272E0,1.0985208E0,3.5517042E0,3.4640467E0,0E0,0E0,0E0,0E0,0E0,0E0,0E0,0E0],"parents":[2147483647,0,0,1,1,2,2,3,3,4,4,5,5,6,6],"right_children":[2,4,6,8,10,12,14,-1,-1,-1,-1,-1,-1,-1,-1],"split_conditions":[-1.1642474E-2,-1.7150199E-2,-2.2269976E-3,2.748273E-2,-6.445895E-3,1.2697919E-2,-3.0155742E-4,-6.8366467E-3,3.1827055E-2,6.437602E-3,5.5221945E-2,3.588238E-3,-4.562161E-2,1.9770196E-2,-1.7752009E-2],"split_indices":[2,2,2,3,1,3,0,0,0,0,0,0,0,0,0],"split_type":[0,0,0,0,0,0,0,0,0,0,0,0,0,0,0],"sum_hessian":[6.498281E1,2.8428362E1,3.655445E1,2.336199E1,5.0663724E0,1.3540412E1,2.3014038E1,2.0863852E1,2.498139E0,2.027709E0,3.0386634E0,7.921048E0,5.619364E0,1.3043401E1,9.970637E0],"tree_param":{"num_deleted":"0","num_feature":"4","num_nodes":"15","size_leaf_vector":"1"}},{"base_weights":[5.756115E-3,3.0428885E-2,-1.7447174E-2,1.3197785E-2,-4.1036105E-1,2.010884E-3,-3.0044561E-2,-4.4290897E-2,9.243389E-3],"categories":[],"categories_nodes":[],"categories_segments":[],"categories_sizes":[],"default_left":[0,0,0,0,0,0,0,0,0],"id":80,"left_children":[1,-1,3,5,7,-1,-1,-1,-1],"loss_changes":[9.3231857E-1,0E0,7.811418E-1,1.0318741E0,1.4917216E0,0E0,0E0,0E0,0E0],"parents":[2147483647,0,0,2,2,3,3,4,4],"right_children":[2,-1,4,6,8,-1,-1,-1,-1],"split_conditions":[-4.2332247E-2,3.0428885E-2,2.9170653E-2,2.0778164E-2,3.93682E-2,2.010884E-3,-3.0044561E-2,-4.4290897E-2,9.243389E-3],"split_indices":[0,0,2,0,2,0,0,0,0],"split_type":[0,0,0,0,0,0,0,0,0],"sum_hessian":[6.489485E1,1.4702287E0,6.3424625E1,5.9732273E1,3.6923537E0,5.8109947E1,1.622327E0,1.7812942E0,1.9110594E0],"tree_param":{"num_deleted":"0","num_feature":"4","num_nodes":"9","size_leaf_vector":"1"}},{"base_weights":[4.9833665E-3,3.0049583E-2,-1.7576797E-2,8.89953E-2,-1.2781925E-1,-3.0115962E-3,3.8031496E-2,-5.165401E-2,-2.274616E-3],"categories":[],"categories_nodes":[],"categories_segments":[],"categories_sizes":[],"default_left":[0,0,0,0,0,0,0,0,0],"id":81,"left_children":[1,-1,3,5,7,-1,-1,-1,-1],"loss_changes":[8.95239E-1,0E0,7.676017E-1,3.385106E0,2.3415203E0,0E0,0E0,0E0,0E0],"parents":[2147483647,0,0,2,2,3,3,4,4],"right_children":[2,-1,4,6,8,-1,-1,-1,-1],"split_conditions":[-4.2332247E-2,3.0049583E-2,-2.783179E-5,-1.7421881E-3,7.2591804E-4,-3.0115962E-3,3.8031496E-2,-5.165401E-2,-2.274616E-3],"split_indices":[0,0,1,1,1,0,0,0,0],"split_type":[0,0,0,0,0,0,0,0,0],"sum_hessian":[6.479448E1,1.4280435E0,6.3366436E1,3.2317566E1,3.104887E1,2.7187277E1,5.1302886E0,1.625582E0,2.9423288E1],"tree_param":{"num_deleted":"0","num_feature":"4","num_nodes":"9","size_leaf_vector":"1"}},{"base_weights":[4.9283053E-3,2.967375E-2,-1.6974485E-2,1.2371429E-2,-3.9467925E-1,1.94877E-3,-2.9683841E-2,-4.3013807E-2,9.236056E-3],"categories":[],"categories_nodes":[],"categories_segments":[],"categories_sizes":[],"default_left":[0,0,0,0,0,0,0,0,0],"id":82,"left_children":[1,-1,3,5,7,-1,-1,-1,-1],"loss_changes":[8.578667E-1,0E0,7.184731E-1,1.0019498E0,1.4192035E0,0E0,0E0,0E0,0E0],"parents":[2147483647,0,0,2,2,3,3,4,4],"right_children":[2,-1,4,6,8,-1,-1,-1,-1],"split_conditions":[-4.2332247E-2,2.967375E-2,2.9170653E-2,2.0778164E-2,3.93682E-2,1.94877E-3,-2.9683841E-2,-4.3013807E-2,9.236056E-3],"split_indices":[0,0,2,0,2,0,0,0,0],"split_type":[0,0,0,0,0,0,0,0,0],"sum_hessian":[6.4767204E1,1.3875191E0,6.3379684E1,5.9707905E1,3.6717823E0,5.8093437E1,1.614464E0,1.7670442E0,1.904738E0],"tree_param":{"num_deleted":"0","num_feature":"4","num_nodes":"9","size_leaf_vector":"1"}},{"base_weights":[4.2059626E-3,1.566973E-1,-7.736602E-2,6.6846125E-2,3.855184E-2,-4.4383845E-1,7.6629277E-3,1.4423874E-2,-8.771418E-3,-3.8998388E-2,1.7964328E-3,4.755432E-2,-2.8968612E-3],"categories":[],"categories_nodes":[],"categories_segments":[],"categories_sizes":[],"default_left":[0,0,0,0,0,0,0,0,0,0,0,0,0],"id":83,"left_children":[1,3,5,7,-1,9,11,-1,-1,-1,-1,-1,-1],"loss_changes":[8.2899857E-1,1.2300133E0,1.3574445E0,1.1969811E0,0E0,1.3504415E0,2.2987635E0,0E0,0E0,0E0,0E0,0E0,0E0],"parents":[2147483647,0,0,1,1,2,2,3,3,5,5,6,6],"right_children":[2,4,6,8,-1,10,12,-1,-1,-1,-1,-1,-1],"split_conditions":[-8.932052E-3,-1.0211607E-2,-4.8432807E-3,8.582295E-5,3.855184E-2,-1.7421881E-3,-4.535992E-3,1.4423874E-2,-8.771418E-3,-3.8998388E-2,1.7964328E-3,4.755432E-2,-2.8968612E-3],"split_indices":[0,0,0,1,0,1,0,0,0,0,0,0,0],"split_type":[0,0,0,0,0,0,0,0,0,0,0,0,0],"sum_hessian":[6.46704E1,2.2216925E1,4.2453476E1,2.0349487E1,1.8674366E0,7.200343E0,3.525313E1,1.0527908E1,9.821579E0,3.8660386E0,3.3343043E0,1.414362E0,3.383877E1],"tree_param":{"num_deleted":"0","num_feature":"4","num_nodes":"13","size_leaf_vector":"1"}},{"base_weights":[4.827849E-3,1.3208017E-1,-9.470196E-2,-3.3723686E-2,7.7883315E-1,-3.577191E-1,7.0044264E-2,-6.7429254E-3,3.097069E-2,9.216085E-3,5.728372E-2,3.3102916E-3,-4.3467052E-2,1.8994635E-2,-1.6605726E-2],"categories":[],"categories_nodes":[],"categories_segments":[],"categories_sizes":[],"default_left":[0,0,0,0,0,0,0,0,0,0,0,0,0,0,0],"id":84,"left_children":[1,3,5,7,9,11,13,-1,-1,-1,-1,-1,-1,-1,-1],"loss_changes":[8.4308743E-1,3.1573548E0,1.6447705E0,1.6820023E0,1.097275E0,3.215473E0,3.0943272E0,0E0,0E0,0E0,0E0,0E0,0E0,0E0,0E0],"parents":[2147483647,0,0,1,1,2,2,3,3,4,4,5,5,6,6],"right_children":[2,4,6,8,10,12,14,-1,-1,-1,-1,-1,-1,-1,-1],"split_conditions":[-1.1642474E-2,-1.7150199E-2,-2.2269976E-3,2.748273E-2,1.2530089E-2,1.2697919E-2,-3.0155742E-4,-6.7429254E-3,3.097069E-2,9.216085E-3,5.728372E-2,3.3102916E-3,-4.3467052E-2,1.8994635E-2,-1.6605726E-2],"split_indices":[2,2,2,3,3,3,0,0,0,0,0,0,0,0,0],"split_type":[0,0,0,0,0,0,0,0,0,0,0,0,0,0,0],"sum_hessian":[6.457859E1,2.8198627E1,3.6379967E1,2.3199087E1,4.9995418E0,1.3560042E1,2.2819923E1,2.0775616E1,2.4234703E0,2.4810882E0,2.5184536E0,7.891675E0,5.668368E0,1.2920512E1,9.899411E0],"tree_param":{"num_deleted":"0","num_feature":"4","num_nodes":"15","size_leaf_vector":"1"}},{"base_weights":[5.4670065E-3,2.9242313E-2,-1.5778814E-2,-2.9329116E-2,3.915165E-3,3.0951587E-2,-1.3466477E-3],"categories":[],"categories_nodes":[],"categories_segments":[],"categories_sizes":[],"default_left":[0,0,0,0,0,0,0],"id":85,"left_children":[1,-1,3,-1,5,-1,-1],"loss_changes":[8.15215E-1,0E0,7.232634E-1,0E0,1.2119079E0,0E0,0E0],"parents":[2147483647,0,0,2,2,4,4],"right_children":[2,-1,4,-1,6,-1,-1],"split_conditions":[-4.2332247E-2,2.9242313E-2,-6.153267E-2,-2.9329116E-2,-4.459557E-2,3.0951587E-2,-1.3466477E-3],"split_indices":[0,0,2,0,2,0,0],"split_type":[0,0,0,0,0,0,0],"sum_hessian":[6.44774E1,1.342393E0,6.3135014E1,1.1456294E0,6.1989384E1,2.0497594E0,5.9939625E1],"tree_param":{"num_deleted":"0","num_feature":"4","num_nodes":"7","size_leaf_vector":"1"}},{"base_weights":[5.666663E-3,-2.3707499E-1,5.529837E-2,2.9093836E-2,-3.833545E-1,4.991552E-2,9.477933E-3,2.2884484E-2,-2.8974479E-2,7.4285544E-3,-6.3310037E-3],"categories":[],"categories_nodes":[],"categories_segments":[],"categories_sizes":[],"default_left":[0,0,0,0,0,0,0,0,0,0,0],"id":86,"left_children":[1,3,5,-1,7,-1,9,-1,-1,-1,-1],"loss_changes":[8.0150986E-1,1.576503E0,2.3731854E0,0E0,1.9459087E0,0E0,1.0334104E0,0E0,0E0,0E0,0E0],"parents":[2147483647,0,0,1,1,2,2,4,4,6,6],"right_children":[2,4,6,-1,8,-1,10,-1,-1,-1,-1],"split_conditions":[8.98827E-3,-1.5580565E-2,9.263326E-3,2.9093836E-2,4.388753E-3,4.991552E-2,-2.783179E-5,2.2884484E-2,-2.8974479E-2,7.4285544E-3,-6.3310037E-3],"split_indices":[3,0,3,0,3,0,1,0,0,0,0],"split_type":[0,0,0,0,0,0,0,0,0,0,0],"sum_hessian":[6.443998E1,1.029787E1,5.414211E1,1.1093407E0,9.188529E0,1.5455856E0,5.2596523E1,1.4854118E0,7.7031174E0,2.596671E1,2.6629814E1],"tree_param":{"num_deleted":"0","num_feature":"4","num_nodes":"11","size_leaf_vector":"1"}},{"base_weights":[6.540528E-3,2.8860021E-2,-1.4078179E-2,1.4741954E-2,-3.874289E-1,-2.4230529E-2,2.4971094E-3,1.2241266E-2,-3.9551225E-2],"categories":[],"categories_nodes":[],"categories_segments":[],"categories_sizes":[],"default_left":[0,0,0,0,0,0,0,0,0],"id":87,"left_children":[1,-1,3,5,7,-1,-1,-1,-1],"loss_changes":[7.7738535E-1,0E0,6.951566E-1,1.086688E0,1.3746996E0,0E0,0E0,0E0,0E0],"parents":[2147483647,0,0,2,2,3,3,4,4],"right_children":[2,-1,4,6,8,-1,-1,-1,-1],"split_conditions":[-4.2332247E-2,2.8860021E-2,2.9170653E-2,-1.6450621E-2,-3.027433E-3,-2.4230529E-2,2.4971094E-3,1.2241266E-2,-3.9551225E-2],"split_indices":[0,0,2,1,1,0,0,0,0],"split_type":[0,0,0,0,0,0,0,0,0],"sum_hessian":[6.437836E1,1.3036442E0,6.3074715E1,5.9446373E1,3.628341E0,3.0738142E0,5.6372562E1,1.5669767E0,2.0613642E0],"tree_param":{"num_deleted":"0","num_feature":"4","num_nodes":"9","size_leaf_vector":"1"}},{"base_weights":[5.9190597E-3,1.2668684E-1,-8.8370554E-2,-2.6013747E-2,7.909261E-1,-4.6873426E-1,2.0657843E-2,-6.0473885E-3,3.0270575E-2,1.7863823E-2,5.6350973E-2,1.32754445E-2,-3.9462432E-2,1.1357639E-2,-1.4138547E-2],"categories":[],"categories_nodes":[],"categories_segments":[],"categories_sizes":[],"default_left":[0,0,0,0,0,0,0,0,0,0,0,0,0,0,0],"id":88,"left_children":[1,3,5,7,9,11,13,-1,-1,-1,-1,-1,-1,-1,-1],"loss_changes":[7.54907E-1,2.9667068E0,1.5550978E0,1.5469385E0,3.9327502E-1,2.1732702E0,1.938985E0,0E0,0E0,0E0,0E0,0E0,0E0,0E0,0E0],"parents":[2147483647,0,0,1,1,2,2,3,3,4,4,5,5,6,6],"right_children":[2,4,6,8,10,12,14,-1,-1,-1,-1,-1,-1,-1,-1],"split_conditions":[-1.1642474E-2,-1.6763112E-2,-6.681188E-3,2.748273E-2,6.272868E-5,-8.932052E-3,-3.0155742E-4,-6.0473885E-3,3.0270575E-2,1.7863823E-2,5.6350973E-2,1.32754445E-2,-3.9462432E-2,1.1357639E-2,-1.4138547E-2],"split_indices":[2,2,2,3,1,0,0,0,0,0,0,0,0,0,0],"split_type":[0,0,0,0,0,0,0,0,0,0,0,0,0,0,0],"sum_hessian":[6.431149E1,2.804604E1,3.6265453E1,2.3584974E1,4.461065E0,7.344332E0,2.892112E1,2.1205244E1,2.3797305E0,2.848618E0,1.6124465E0,2.2839086E0,5.060424E0,1.735902E1,1.1562099E1],"tree_param":{"num_deleted":"0","num_feature":"4","num_nodes":"15","size_leaf_vector":"1"}},{"base_weights":[6.727753E-3,2.8421938E-2,-1.3256034E-2,-2.8764961E-2,6.2161423E-3,3.0203104E-2,-1.1831983E-3],"categories":[],"categories_nodes":[],"categories_segments":[],"categories_sizes":[],"default_left":[0,0,0,0,0,0,0],"id":89,"left_children":[1,-1,3,-1,5,-1,-1],"loss_changes":[7.3883826E-1,0E0,7.027783E-1,0E0,1.1350257E0,0E0,0E0],"parents":[2147483647,0,0,2,2,4,4],"right_children":[2,-1,4,-1,6,-1,-1],"split_conditions":[-4.2332247E-2,2.8421938E-2,-6.153267E-2,-2.8764961E-2,-4.459557E-2,3.0203104E-2,-1.1831983E-3],"split_indices":[0,0,2,0,2,0,0],"split_type":[0,0,0,0,0,0,0],"sum_hessian":[6.4148834E1,1.2609391E0,6.2887897E1,1.1499907E0,6.1737907E1,2.0240571E0,5.971385E1],"tree_param":{"num_deleted":"0","num_feature":"4","num_nodes":"7","size_leaf_vector":"1"}},{"base_weights":[6.85299E-3,2.806263E-2,-1.2579317E-2,3.5731863E-2,-2.2628269E-1,-1.633196E-3,2.7820764E-2,-5.1688995E-2,-7.4368477E-4],"categories":[],"categories_nodes":[],"categories_segments":[],"categories_sizes":[],"default_left":[0,0,0,0,0,0,0,0,0],"id":90,"left_children":[1,-1,3,5,7,-1,-1,-1,-1],"loss_changes":[7.085349E-1,0E0,6.676576E-1,1.9045647E0,2.0188026E0,0E0,0E0,0E0,0E0],"parents":[2147483647,0,0,2,2,3,3,4,4],"right_children":[2,-1,4,6,8,-1,-1,-1,-1],"split_conditions":[-4.2332247E-2,2.806263E-2,6.4988183E-3,4.203564E-3,7.3635476E-3,-1.633196E-3,2.7820764E-2,-5.1688995E-2,-7.4368477E-4],"split_indices":[0,0,1,1,1,0,0,0,0],"split_type":[0,0,0,0,0,0,0,0,0],"sum_hessian":[6.411255E1,1.2269003E0,6.288565E1,5.196981E1,1.0915839E1,4.6764236E1,5.205576E0,1.4577748E0,9.458064E0],"tree_param":{"num_deleted":"0","num_feature":"4","num_nodes":"9","size_leaf_vector":"1"}},{"base_weights":[6.5637813E-3,-2.2161466E-1,5.3292744E-2,2.8599218E-2,-3.618243E-1,4.8518438E-2,8.926061E-3,2.2132171E-2,-2.7523208E-2,7.15607E-3,-6.1111473E-3],"categories":[],"categories_nodes":[],"categories_segments":[],"categories_sizes":[],"default_left":[0,0,0,0,0,0,0,0,0,0,0],"id":91,"left_children":[1,3,5,-1,7,-1,9,-1,-1,-1,-1],"loss_changes":[7.058588E-1,1.4596691E0,2.2224004E0,0E0,1.7885816E0,0E0,9.557768E-1,0E0,0E0,0E0,0E0],"parents":[2147483647,0,0,1,1,2,2,4,4,6,6],"right_children":[2,4,6,-1,8,-1,10,-1,-1,-1,-1],"split_conditions":[8.98827E-3,-1.5580565E-2,9.263326E-3,2.8599218E-2,4.388753E-3,4.8518438E-2,-2.783179E-5,2.2132171E-2,-2.7523208E-2,7.15607E-3,-6.1111473E-3],"split_indices":[3,0,3,0,3,0,1,0,0,0,0],"split_type":[0,0,0,0,0,0,0,0,0,0,0],"sum_hessian":[6.409221E1,1.0258278E1,5.383393E1,1.0778813E0,9.180397E0,1.5210795E0,5.231285E1,1.4880412E0,7.6923556E0,2.5811012E1,2.6501839E1],"tree_param":{"num_deleted":"0","num_feature":"4","num_nodes":"11","size_leaf_vector":"1"}},{"base_weights":[7.3795724E-3,3.515126E-2,-3.621832E-1,6.070691E-2,-2.8404057E-2,-4.205802E-2,1.0243303E-2,6.8219483E-4,2.217724E-2],"categories":[],"categories_nodes":[],"categories_segments":[],"categories_sizes":[],"default_left":[0,0,0,0,0,0,0,0,0],"id":92,"left_children":[1,3,5,7,-1,-1,-1,-1,-1],"loss_changes":[6.801412E-1,9.8094606E-1,1.4308329E0,1.0714465E0,0E0,0E0,0E0,0E0,0E0],"parents":[2147483647,0,0,1,1,2,2,3,3],"right_children":[2,4,6,8,-1,-1,-1,-1,-1],"split_conditions":[2.9170653E-2,2.0778164E-2,3.93682E-2,1.5826643E-2,-2.8404057E-2,-4.205802E-2,1.0243303E-2,6.8219483E-4,2.217724E-2],"split_indices":[2,0,2,2,0,0,0,0,0],"split_type":[0,0,0,0,0,0,0,0,0],"sum_hessian":[6.402827E1,6.0394653E1,3.6336179E0,5.880286E1,1.5917908E0,1.7077284E0,1.9258894E0,5.3287735E1,5.5151277E0],"tree_param":{"num_deleted":"0","num_feature":"4","num_nodes":"9","size_leaf_vector":"1"}},{"base_weights":[6.438688E-3,1.2211742E-1,-8.395232E-2,-1.1515881E-1,5.2957714E-1,-4.4994625E-1,2.0942245E-2,-3.520425E-2,2.0036509E-3,5.543899E-2,1.4764056E-2,1.2814117E-2,-3.7819102E-2,-9.471088E-3,1.5700143E-2],"categories":[],"categories_nodes":[],"categories_segments":[],"categories_sizes":[],"default_left":[0,0,0,0,0,0,0,0,0,0,0,0,0,0,0],"id":93,"left_children":[1,3,5,7,9,11,13,-1,-1,-1,-1,-1,-1,-1,-1],"loss_changes":[6.89567E-1,2.8555043E0,1.4322717E0,1.7732908E0,1.1404006E0,1.9901717E0,1.8942788E0,0E0,0E0,0E0,0E0,0E0,0E0,0E0,0E0],"parents":[2147483647,0,0,1,1,2,2,3,3,4,4,5,5,6,6],"right_children":[2,4,6,8,10,12,14,-1,-1,-1,-1,-1,-1,-1,-1],"split_conditions":[-1.1642474E-2,-2.2442015E-2,-6.681188E-3,1.0254999E-2,-1.9994693E-2,-8.932052E-3,1.6929626E-2,-3.520425E-2,2.0036509E-3,5.543899E-2,1.4764056E-2,1.2814117E-2,-3.7819102E-2,-9.471088E-3,1.5700143E-2],"split_indices":[2,2,2,3,2,0,3,0,0,0,0,0,0,0,0],"split_type":[0,0,0,0,0,0,0,0,0,0,0,0,0,0,0],"sum_hessian":[6.3966938E1,2.7904678E1,3.606226E1,1.8088541E1,9.816136E0,7.3004193E0,2.8761843E1,3.0357318E0,1.505281E1,1.752182E0,8.063954E0,2.2586586E0,5.041761E0,1.6949116E1,1.1812726E1],"tree_param":{"num_deleted":"0","num_feature":"4","num_nodes":"15","size_leaf_vector":"1"}},{"base_weights":[6.4312555E-3,3.4021094E-2,-3.6179122E-1,5.8860734E-2,-2.7713034E-2,-4.1281074E-2,9.526428E-3,-2.0097274E-2,4.6476424E-3],"categories":[],"categories_nodes":[],"categories_segments":[],"categories_sizes":[],"default_left":[0,0,0,0,0,0,0,0,0],"id":94,"left_children":[1,3,5,7,-1,-1,-1,-1,-1],"loss_changes":[6.7144907E-1,9.279843E-1,1.3379097E0,9.7515154E-1,0E0,0E0,0E0,0E0,0E0],"parents":[2147483647,0,0,1,1,2,2,3,3],"right_children":[2,4,6,8,-1,-1,-1,-1,-1],"split_conditions":[2.9170653E-2,2.0778164E-2,3.93682E-2,-1.6450621E-2,-2.7713034E-2,-4.1281074E-2,9.526428E-3,-2.0097274E-2,4.6476424E-3],